786 64
314 0.12104756 0.121760115 0.12193987 0.012427468 -0.066297255 0.041897792 0.040249184 -0.00694484 0.040418837 -0.09246659 -0.008956221 -0.07801761 0.032006986 -0.080323234 0.07510455 0.007133326 -0.07722906 0.048418753 0.0073484285 -0.027145721 -0.02045284 0.032013632 0.06982083 0.022672985 -0.00052114396 0.061183907 -0.26187286 -0.052188374 0.098046735 -0.038731564 0.009071249 -0.05349445 -0.14714023 -0.064228736 0.045285016 0.16298483 0.021290062 0.015902495 -0.0061017317 0.021970881 0.017114524 0.032804277 0.09905166 -0.06622393 -0.032768328 0.045310173 -0.019619035 0.02447629 -0.019788222 -0.057640176 0.008532557 0.009663722 -0.03735292 -0.08005074 0.031326164 0.04924178 -0.0056356955 -0.10217295 -0.011233222 0.025257166 0.027159309 0.13391705 -0.02926311 0.061238218
312 0.07936638 0.070137076 0.09266341 0.017401114 0.086858995 -0.005233689 -0.000901471 0.015493825 -0.03492145 0.00070049544 0.056897838 -0.06768294 0.048358522 -0.03671043 -0.09468539 0.04208767 -0.11971325 0.04589337 0.026189024 0.08917548 -0.020661326 -0.047931574 0.09651111 -0.10459967 -0.03756291 0.101036355 -0.21911544 -0.018210828 0.037108153 -0.06587382 0.13242869 -0.027496504 -0.13534415 0.013192374 0.018087344 0.19578196 -0.050223853 0.018515112 -0.07899205 0.0134875 -0.084649354 0.07858769 0.051675454 -0.10687498 -0.0333651 0.047999874 -0.012663375 -0.012374246 0.0034745422 -0.09845459 0.024077367 -0.020056 -0.12135516 -0.12061588 0.021434078 0.058208473 0.046090793 -0.12166827 0.050597873 0.066520065 0.017737785 0.0659447 -0.018036492 -0.0017261335
315 0.0659882 0.06708444 0.08759042 -0.028367747 -0.04250667 0.078775354 -0.038805634 -0.025454625 0.01750882 -0.1084174 -0.010223832 -0.054543182 -0.0777241 -0.029539036 0.020450668 0.024847422 -0.05633685 0.094949484 -0.021649653 -0.0057694083 -0.058442123 -0.013528908 0.0993806 -0.03337776 -0.03849109 0.10435182 -0.21585074 -0.10450916 0.034573752 -0.057628136 0.038208935 -0.04461535 -0.1373614 -0.028152961 0.05625755 0.22101751 -0.032734465 0.049034066 -0.010380064 -0.0024292201 0.035452094 -0.009048064 0.07234593 -0.014468741 -0.040955216 -0.006378062 -0.05182249 0.031537693 0.03863119 -0.034448758 -0.021038327 0.0650648 -0.036223233 -0.090185136 0.050278857 0.015200168 0.018221255 -0.02075194 0.072120056 -0.021235729 0.002066667 0.082058184 -0.07751335 0.042102996
313 0.108875714 0.06360139 0.1357351 -0.008797929 -0.08038389 0.045056358 -0.023551233 -0.0076430715 0.010875244 -0.11075177 0.028649569 -0.012421833 0.0019159605 -0.08008198 0.00017087086 0.026547145 -0.07737354 0.12275059 -0.06951058 0.023148436 -0.0012289614 -0.011189108 0.12617028 0.009482682 -0.045166895 0.006629163 -0.19011886 0.0071664844 0.12506494 -0.04070099 0.12628883 -0.028200798 -0.0718015 0.027253449 -0.01587618 0.2068798 -0.05403922 -0.10883187 -0.019677643 0.05820174 -0.024865918 0.042919587 0.062885374 0.039540157 -0.06679842 -0.019914474 0.043574777 0.047131747 -0.005531407 -0.027769959 0.008226642 -0.011779728 -0.072455645 -0.08241331 -0.027244428 0.02502439 -0.061616346 -0.022597488 0.0030129482 -0.016605671 -0.022810517 0.10426442 -0.11292019 -0.005535645
45 0.111565925 0.07115204 0.08741955 0.08827137 -0.08960673 -0.020876417 0.0020664975 0.0044555822 0.08718974 -0.018557558 0.05090231 -0.14804243 -0.08927388 -0.1180779 0.026510864 0.050309286 0.0034683086 0.17908996 -0.05868625 0.17173545 -0.03816821 0.030968392 0.06285025 0.06495059 -0.0224418 0.047331966 -0.16152324 -0.027925393 0.025834229 0.060385626 0.03437453 -0.027902674 -0.09743029 0.012694264 0.0006303633 0.2008025 -0.024425559 0.09360669 0.006464054 0.040508263 0.064214446 0.020259874 0.026974937 -0.04773452 0.045668107 0.03356668 0.037915003 0.098167725 -0.007381641 -0.07462867 0.09947555 -0.048331466 -0.073792376 -0.022628443 0.029581225 -0.003707998 0.07394187 -0.18858086 0.11734038 -0.04366184 0.08472203 0.045704406 -0.02951524 0.041851312
44 0.13650343 0.04668558 0.0060790903 0.045876693 -0.045340445 0.055958565 -0.11781309 0.033521987 -0.007740028 -0.12607135 -0.03104102 -0.09003333 -0.14754443 -0.10137941 0.029621353 -0.0121457055 -0.03430164 0.124702334 -0.027402062 0.04324703 -0.026539803 0.0636612 0.043545198 0.040796965 -0.02907923 -0.011278207 -0.18185431 -0.04349074 0.15935731 0.08758644 0.009438766 -0.043828443 -0.16014995 -0.016331062 -0.025353668 0.22423296 -0.11531461 -0.0047177556 0.050305344 0.0710352 0.010475786 -0.03775145 0.03906593 0.027994318 -0.04169942 -0.0050983294 0.028175622 0.083844356 0.05051052 -0.1435493 -0.06734291 -0.025704948 -0.096967936 -0.03196116 0.06702169 -0.014878758 -0.002429523 -0.010833442 0.025745677 -0.018511927 0.07183118 0.12648308 0.037975345 0.07609726
46 0.108879544 0.11588488 0.012856775 0.11238385 -0.034429524 0.09261418 -0.024658157 -0.021070484 -0.006727067 -0.115194656 0.027663201 -0.07534691 -0.115673095 -0.113260396 -0.009672144 -0.027389644 -0.06431188 0.10916396 -0.047199745 0.03538866 0.052017856 0.023641864 0.10541362 0.12032825 -0.014506158 -0.07542731 -0.11936229 0.008004277 0.124787085 0.028380955 0.08193005 -0.02176807 -0.15639777 0.0094634555 -0.0375546 0.23680371 -0.076569736 -0.019549008 0.02913763 -0.015667273 -0.009924082 -0.03592207 0.12156438 -0.108686335 -0.07929686 0.017474528 0.048263725 0.08693004 -0.034260098 -0.0279973 0.0059333155 0.040578846 -0.06963349 -0.07052625 0.02809995 -0.10723922 0.019706292 -0.06227286 -0.010782319 0.029357996 0.09079644 0.10404619 -0.025694966 0.026458493
235 0.08765806 0.08090689 0.013458181 0.072565675 -0.092713565 0.13120794 -0.07404636 -0.016893737 -0.050613627 -0.006017519 0.06628019 0.03971271 -0.0737164 -0.10591526 0.0038003193 0.043692905 -0.003301537 0.21185589 -0.031218003 0.06202416 -0.048720807 -0.010861492 0.06198508 -0.08851154 0.011801543 0.13043827 -0.18720643 -0.019181065 0.1215579 -0.0016668777 -0.0041960045 -0.19077903 -0.13501588 -0.104945116 0.03275383 0.24951524 -0.05140463 0.011964231 -0.06255464 -0.044150345 -0.045497183 -0.040573165 0.080323674 -0.07232623 -0.08265968 0.05215019 0.053175148 0.036764916 0.05002252 -0.054965135 -0.090344146 0.023415178 -0.06479603 -0.109023735 0.13756222 -0.06128704 0.013046019 -0.047768675 0.017904947 0.03708857 0.042932037 0.022363301 -0.025232477 0.08920502
232 -0.045400575 0.03787215 -0.008868905 -0.058554396 -0.082691684 0.050145444 -0.07889105 -0.0128345275 -0.079284735 -0.123249434 -0.004464789 -0.060085706 -0.0765454 -0.09951961 0.013511874 -0.07316601 -0.0010135075 0.22562084 -0.06494967 0.099372484 0.008752056 -0.043355178 0.1674103 0.06670745 -0.059213854 0.04247562 -0.19592018 -0.037343506 0.060171667 0.014557693 0.08651644 -0.11380824 -0.24752063 -0.046720114 0.07941014 0.16450655 -0.15859815 -0.0042400556 0.041912027 0.022299783 -0.13625684 -0.07320966 0.01732274 -0.092586845 -0.06306079 0.030707156 0.0066381874 0.024732348 -0.040051106 -0.062344585 -0.023496449 0.044761274 -0.07852364 0.00640241 -0.0069384077 -0.0104736425 -0.07697432 -0.08569159 0.07315035 -0.016202562 0.0712467 -0.016210366 -0.0030308843 0.007075518
233 0.08816613 0.0506422 -0.027899293 -0.010825234 -0.03338178 0.05200092 0.028052371 -0.033864237 -0.040753666 -0.0813351 0.07330664 -0.029750727 -0.14603691 -0.037819285 0.022463597 -0.08295283 -0.059815895 0.11856334 -0.1260425 0.18128279 -0.03375599 0.019262617 0.11917989 -0.05984498 -0.037419435 0.12176067 -0.18728663 -0.07911723 0.1252484 -0.008456394 0.07786767 -0.09883463 -0.12697257 -0.04733377 0.055815384 0.2631743 -0.07101752 -0.012760829 -0.03170914 -0.02971325 -0.107150376 0.058494385 0.10767694 -0.107318215 -0.081526466 0.014408999 0.024104062 0.043913312 -0.12757684 0.11303989 0.061642636 0.0018682237 -0.13503677 -0.08096953 0.021438733 0.0093765855 -0.0503175 -0.06808843 0.066826805 -0.056464497 0.057122633 0.11816987 -0.023893598 0.015555453
230 0.05661687 0.04338232 0.024311328 0.037974205 0.010494611 -0.02993463 -0.065353334 0.021637581 0.05203586 -0.116460145 -0.02740017 -0.16104122 -0.15420604 0.01437439 -0.021916758 0.0032743572 -0.18956548 0.085984506 -0.06885037 0.14386362 0.03320588 0.03101154 0.15455255 -0.0016595387 0.017706117 0.016356502 -0.13116494 -0.093534656 0.05888602 0.044209737 0.10382809 -0.12664334 -0.16082305 -0.076857254 -0.02658106 0.20361239 -0.008556161 -0.037890792 -0.065516956 -0.028616263 0.01886157 0.05725289 0.086363636 -0.06582928 -0.062972784 -0.030808184 0.104373015 0.051686633 -0.089611106 -0.13865837 0.037124313 -0.05738061 -0.108169354 -0.12323138 -0.0073835882 -0.007657714 0.0036910432 -0.08771198 -0.019390339 -0.03785214 0.019387137 0.04853251 0.047603063 0.031472106
43 0.15372397 0.0011906917 -0.04887615 0.16014516 -0.034195926 0.051229015 -0.11254291 -0.0062706806 0.03774253 -0.09852531 -0.07223422 -0.10581048 -0.11222924 0.04737307 0.034153577 -0.007175402 -0.048811737 0.013198739 0.018255059 0.10441429 -0.09809578 0.093033865 0.095458984 0.08672371 -0.033523526 0.03812482 -0.16271731 -0.048705015 0.021651655 0.029029632 0.031756707 0.012220525 -0.14700699 -0.02518732 -0.05072975 0.22671753 -0.15299381 -0.039729536 0.024636209 -0.018644702 -0.031105554 -0.067306735 0.08975068 -0.073727675 -0.08092274 -0.0028863812 0.028620075 -0.018120648 0.003195971 0.03339901 0.06594061 0.01490155 -0.04548648 -0.0004076327 0.13779265 0.024406146 0.047324076 -0.18914144 0.07207181 -0.018775793 0.019661784 0.054056868 -0.061399538 0.017749239
282 -0.0049826 0.046441585 0.07803308 0.026764665 -0.009463078 0.11464184 -0.10718135 0.00332722 0.051187173 -0.029773409 0.030966781 -0.06890437 -0.07759934 -0.007545476 -0.0030757089 0.00791342 -0.15322846 0.09722387 -0.030716818 0.11400822 0.031784594 -0.027648574 0.10973802 0.06609257 -0.015669163 0.10054196 -0.34001678 0.04578662 0.07535862 0.054152887 0.035321414 -0.03204669 -0.13992763 -0.03626618 0.088877805 0.092664 0.0033422397 0.052748077 0.027348967 0.026718598 0.018226333 -0.094895765 0.12911555 -0.005835465 -0.027713064 0.059770245 0.04981727 -0.09650142 0.069203086 -0.049218554 0.041574173 0.04851541 -0.13223736 -0.04548687 0.11484567 0.0037275804 0.0037285949 -0.12799504 0.07323696 -0.07618097 0.072030306 0.106190495 -0.06919734 -0.048693966
42 0.15664896 0.021744756 0.109327905 0.03228554 -0.020078482 0.028567608 -0.024097739 0.09544223 -0.07498934 -0.14562628 0.03318724 -0.16347933 -0.11377371 -0.16192496 -0.001092855 -0.029297384 0.017375356 0.042621918 -0.075214334 0.1242788 -0.02707027 0.030488156 0.002374382 0.031067604 -0.019753246 0.13841394 -0.19871004 0.0030226826 -0.018176898 -0.05982482 0.06308598 0.01945097 -0.15273534 -0.07460429 -0.0040045497 0.26052704 -0.051392592 0.18165022 -0.039126962 0.062407125 0.04844105 0.018981352 0.00889225 0.0008920091 -0.003353032 0.07672688 -0.032355156 0.01755245 -0.041075192 0.00075525924 0.0010057653 0.018948128 -0.055447944 -0.072449505 0.043300882 -0.039104182 -0.045414075 -0.05861724 0.03377244 -0.021165468 -0.037155975 0.15840602 -0.009894249 0.04882184
234 0.07384846 0.03116812 0.06818886 0.001110195 -0.03758849 0.17667378 -0.030763676 -0.05127402 -0.0018239066 -0.040280957 0.14271016 -0.009985109 -0.13954212 -0.07877591 -0.0018484249 -0.012431343 -0.09605305 0.15063877 0.045323186 0.088204995 0.042943384 -0.03489595 0.2128078 -0.05752213 0.026035504 0.06992971 -0.18051048 0.04179679 0.14498138 -0.03370266 0.11441645 -0.07307703 -0.15243827 -0.01283264 0.06767112 0.17210713 0.035310376 -0.026196642 -0.035582934 0.06632875 0.03944901 -0.10441384 0.14133789 -0.03009949 -0.06293901 -0.047113154 -0.036795326 0.07628418 -0.021453774 -0.013378983 0.008969654 -0.04882235 -0.11653415 0.020236596 0.083880834 -0.13109256 -0.0008883132 -0.13970226 0.06586154 0.017426165 0.13296007 0.041237086 -0.097249135 0.04897472
229 0.0054490715 0.054307543 0.011147554 -0.038522445 -0.05571367 0.046049885 -0.017970076 -0.020002445 -0.021490877 -0.17474955 0.0776675 -0.074766494 -0.12385919 -0.058161274 -0.029297203 0.009117814 -0.090706386 0.120455265 -0.09589626 0.23060527 -0.06079136 -0.086588986 0.05568831 -0.02087606 -0.064602956 0.03162886 -0.18078017 0.011958095 0.14339754 0.06275047 0.11909677 -0.049178205 -0.12934807 -0.15452367 0.015229612 0.105421476 -0.032951962 0.016260458 -0.05224932 -0.11690682 -0.010788572 -0.019073872 0.13231216 0.0068965787 -0.09373426 0.079570204 0.023775041 -0.05365845 0.0077446774 0.03537016 0.0054112384 -0.027419897 -0.10442804 -0.091794476 0.01688403 -0.0139932055 0.059478898 -0.11631236 0.015585766 -0.026740814 0.01618265 0.11720295 -0.0051918747 0.15426987
281 0.08697914 0.07799475 0.09033043 0.050762814 -0.04355391 -0.030476473 0.02693869 -0.060321994 0.041247938 -0.0530066 0.09000265 -0.090591185 -0.07143147 0.009837318 0.137661 -0.115235105 -0.08728794 0.058936123 -0.083160445 0.0049011903 -0.031642057 -0.03667597 0.056352295 -0.011834897 -0.032280795 0.08452484 -0.19479014 -0.01548534 0.055754133 -0.042988967 0.08251156 -0.112714276 -0.14199144 -0.0061192936 -0.069041416 0.18325718 -0.0067482633 -0.01948446 -0.017330661 0.02461314 -0.014088303 -0.026071383 0.002749001 -0.036228076 -0.1133807 -0.010049568 0.084407575 -0.030662844 -0.0034382336 -0.030181585 0.011511177 0.10224905 -0.04998513 0.017102167 0.10461616 -0.03136617 -0.0425613 -0.14739163 -0.029885825 -0.007168204 -0.007187331 0.050616637 0.01727724 0.107230656
41 -0.011519402 0.045377407 0.022681639 0.000111947025 0.018970225 0.051698487 -0.091272555 -0.10466625 -0.12847352 -0.10782429 0.045960966 -0.10275286 -0.057605587 -0.09706539 -0.031811748 -0.0008875251 -0.062495753 0.16977711 0.030471824 -0.004096247 -0.024979087 0.041134186 0.12646204 0.020455912 -0.0034378322 0.041860536 -0.17997693 -0.05269057 0.096415915 0.06900152 0.020739857 -0.08983216 -0.22164029 0.022616087 0.00038601147 0.24258327 -0.11811294 0.055359572 -0.015344215 0.07890542 -0.04134491 0.04495512 0.01350367 -0.010787459 -0.07854177 -0.017025227 -0.03317714 -0.11575142 -0.08150534 -0.09951139 0.061154187 0.021381807 -0.106151685 -0.044885032 0.12727065 -0.029771453 0.042092703 -0.078736566 -0.01567489 -0.08050449 0.015103468 0.027944243 -0.04044514 0.15981542
231 0.06569927 0.10814 0.018236822 -0.018510006 -0.056042504 0.05991589 -0.008867229 0.03093965 -0.059182867 -0.08153217 0.007102726 -0.1342576 -0.06403856 -0.090056814 0.09677636 -0.054183044 -0.07639191 0.16742344 0.00072897034 -0.016486593 0.006223613 -0.01653714 0.12580067 0.061017364 -0.0054450473 0.035707153 -0.20737633 -0.00024356804 0.0122970035 0.09035171 0.07829471 -0.112625204 -0.12359627 -0.084744796 0.030824043 0.22578368 -0.08469339 0.0056987535 0.015281876 0.18055727 -0.0064243237 0.030192895 0.15040666 -0.10551849 -0.04710542 -0.05888194 0.029822433 0.057923 -0.048815593 -0.0349522 0.1060408 0.012629324 -0.08812461 -0.06696045 -0.059559245 0.000708159 -0.0018450067 -0.16683105 0.035080105 -0.010865968 0.10436629 0.067982666 -0.003112547 -0.043162555
95 0.13157095 0.048450883 0.024076657 0.022216586 0.010339812 -0.0017971374 -0.0095727965 0.01601458 -0.021088308 0.009603782 0.0046934173 0.017241513 -0.031012831 0.021136679 -0.10486459 -0.18948098 -0.10160414 0.045147333 -0.17290187 0.016019654 0.015069149 0.024364738 0.060628746 -0.025889589 0.0675659 -0.12434437 -0.16670759 -0.0323886 -0.115139075 -0.02204421 0.0114557 0.02575983 -0.11257707 -0.052340895 -0.08727332 0.21234705 -0.029120281 -0.05604625 -0.16060472 0.0038740514 0.011099637 0.013856353 0.07998468 -0.17061372 -0.007917451 0.18377295 0.043911733 -0.03462193 0.06368943 0.0653727 -0.12109604 -0.10712056 -0.058004946 -0.01705309 0.014072029 0.08489155 0.10939383 -0.017113386 0.016924491 0.107875556 -0.026705269 -0.030830191 -0.077112816 0.0785536
292 0.14327575 0.051428553 -0.070957 0.100424044 -0.053716224 0.15843453 -0.0628183 -0.056502502 0.023560686 -0.1365961 0.04514841 -0.08441962 -0.055534285 0.023066765 0.15148354 -0.054418366 -0.051998384 -0.023262545 -0.17134967 0.10930628 -0.02090205 -0.0614902 0.016323712 -0.08361265 0.024317695 0.04172944 -0.18923794 0.023166366 -0.014868567 -0.052184757 0.12133071 -0.024235733 -0.18600212 -0.01839502 0.007841413 0.15333526 -0.043999314 0.07660659 -0.007697133 0.0365263 -0.09980255 -0.030265518 0.07433121 -0.06703531 -0.15232126 -0.035470083 -0.013911629 0.035342664 -0.06017135 -0.08739084 -0.06004523 0.023821041 -0.03810344 -0.14287703 0.07535419 -0.08638277 0.08619133 -0.123097494 0.028835036 -0.0068163606 0.025056474 0.16899428 -0.1254879 0.013254667
769 0.048969857 0.03905834 0.017043546 0.03047236 -0.071088426 0.03302513 -0.020232782 0.0033279702 -0.034294512 -0.15583289 0.08806029 -0.12560263 -0.10257358 -0.066307425 0.03136422 -0.017273864 -0.019768886 0.093973346 -0.15735255 0.11362696 0.016554814 0.04103048 0.13427196 -0.057650626 -0.090118825 0.005354784 -0.13133419 0.056470472 0.035225276 -0.011496984 0.01419121 -0.18830849 -0.17132366 -0.048308875 -0.007210434 0.11799714 -0.037072156 0.036566947 0.019638378 -0.009116419 0.08012057 -0.0036490893 0.047997423 -0.082678884 -0.078254625 0.046551708 0.012611381 0.062563434 0.045395788 -0.02252337 0.09163246 0.04968199 -0.072785065 -0.15419124 0.18200059 -0.005103785 -0.012492332 -0.10228842 0.0068578385 -0.071170636 0.116718195 0.1711892 -0.097972356 0.017060963
40 0.053889904 0.0919964 0.05603511 -0.01326039 0.047944274 0.020330818 -0.15079072 -0.12749413 -0.035535425 -0.12817232 0.030228652 -0.0846293 -0.1157153 -0.06840222 0.11491276 0.031972773 -0.05887103 -0.031741966 0.016363522 0.14957541 0.00965153 -0.009719233 0.044587832 0.038704 -0.035447672 0.09545741 -0.28319517 -0.12339756 0.03371939 -0.034691975 0.1387922 0.035114326 -0.12804842 -0.10820826 0.06352618 0.20805411 -0.0026295902 -0.038742647 0.074538976 -0.020260537 -0.011201163 -0.03879921 0.044847697 -0.0727293 -0.050776947 0.052523993 0.017126404 0.032305602 -0.020630484 -0.08736884 0.015165387 -0.00888421 -0.055602126 -0.035723124 0.09094475 0.051325217 -0.09769349 -0.036914084 0.041203123 -0.05135618 0.06376696 0.10454877 -0.16424574 -0.023043185
291 0.08786311 0.07296343 0.024777006 0.1344903 0.03743417 0.01909328 -0.018987402 0.025467841 -0.0013143346 -0.16444941 0.028260503 -0.06728466 -0.017722975 -0.037366796 0.08560465 -0.04175954 -0.054016743 0.087933935 -0.086812586 0.18685393 -0.089263394 -0.08569608 -0.025386143 -0.1017647 -0.05144389 0.02948905 -0.25965986 0.099479266 0.08051517 0.0548628 0.06861118 0.035506584 -0.23318383 -0.029534072 0.0023476775 0.18817815 -0.019608175 0.012644662 -0.082301535 0.035007164 -0.06599861 -0.041558836 0.036338545 -0.056419324 -0.06314697 0.019442461 0.046043713 -0.0697275 0.009744964 0.009413263 0.113575414 -0.021628045 -0.12373796 -0.021035803 0.07048612 0.038619693 -0.07448291 -0.039011605 -0.03162283 -0.059338 -0.009847738 0.066773646 -0.01900254 0.10179001
293 0.056190703 0.09699753 -0.025771683 0.066854626 -0.029607171 -0.051694207 -0.03642496 -0.12500592 -0.07893362 -0.17750327 0.051629797 -0.0801089 -0.048858665 -0.05661972 0.0011020206 0.04458404 -0.11636895 0.14045562 0.031120911 -0.017307853 -0.11689009 -0.06005691 0.12704541 0.06498054 -0.03631406 0.068485804 -0.19335666 0.020682383 0.018674554 0.017466579 0.08815432 -0.016323881 -0.20445831 -0.10169872 -0.02366641 0.16755599 -0.04316465 0.12459891 0.060803276 -0.009382403 0.03536279 0.025599716 0.009803154 -0.1586517 -0.02917208 0.058051392 -0.10708319 -0.025308672 -0.04298231 -0.038859703 -0.0058242385 0.023989966 -0.09923089 -0.108151436 0.06778213 0.078773305 0.038631205 -0.16537324 -0.0025230234 -0.106270246 0.037487075 0.09239238 -0.07897809 0.032061726
261 0.06136885 0.040670536 0.03919567 0.033147488 0.0135967145 -0.0070202495 -0.0081042545 0.02387037 -0.0075989766 -0.0001958113 -0.0047491943 -0.09133665 0.11223147 0.026205225 -0.12071918 0.0639305 -0.0835625 0.19398318 -0.0756412 0.0043335697 0.06285952 0.0768268 0.029434618 -0.0020822384 -0.025422482 -0.03410761 -0.18855125 -0.14461377 -0.014469131 0.0012720163 0.12513267 0.15190236 -0.094073966 0.013067435 -0.014636825 0.12111262 0.05504713 -0.13997123 0.09057685 0.0002653596 -0.05121176 -0.035655838 0.06677541 -0.06311743 -0.055427328 0.03316444 -0.03394572 -0.043142535 0.0879323 0.0059077144 -0.12644888 -0.05778337 -0.033172872 -0.019536832 0.06028523 0.04009676 0.04915628 0.14522225 0.11538745 -0.12851012 -0.111242004 -0.051679682 -0.0021661473 0.12876993
294 0.18813492 0.19089651 0.048900053 0.03213488 0.043207638 0.0189569 -0.08734857 0.0003983319 -0.08556816 -0.1459376 0.041366674 -0.08941388 -0.13042703 -0.051697128 -0.0061296583 0.013072436 -0.0030673414 0.21315822 -0.13610315 0.11575601 0.016027972 -0.08027847 0.018284777 0.018726472 0.032689057 0.042938624 -0.15409546 0.07100378 0.12904802 0.029140512 0.030311719 -0.09310395 -0.19473699 0.0647297 -0.01553118 0.12436415 -0.102772795 -0.042528186 0.07871285 0.103410326 -0.033575304 -0.045227632 0.026542133 -0.018227473 -0.07910226 -0.024672147 0.04165307 0.07216148 -0.020412922 -0.022242611 -0.08203602 0.1501768 -0.06098147 -0.028869817 0.0021884223 0.01023253 0.09760023 -0.21114907 -0.009340507 0.01830319 0.053233493 0.020173332 0.005818344 0.059679616
295 0.042124685 0.08097327 0.038392555 0.12400653 0.03526731 0.01261245 -0.07083842 0.045011044 -0.058283083 0.00900155 0.0014773235 -0.05407263 -0.16934837 0.0010214954 0.05397981 -0.041717663 -0.044588227 0.12729485 -0.09967604 0.25323686 0.009272017 0.06640595 -0.00431832 -0.13027401 0.05236773 0.11787955 -0.15254737 0.039115775 -0.035824083 0.036602296 0.17481084 -0.09155799 -0.25831974 -0.050145984 0.058843594 0.21225445 -0.09580836 0.019259213 -0.0020317987 0.09202769 0.0016982126 -0.10981113 0.056532137 -0.017970994 -0.049155172 -0.0055042524 0.033148408 0.11147841 -0.00024773233 -0.12121699 -0.02177083 -0.0153538585 -0.1101835 0.017256144 0.01969779 -0.01830212 -0.020214286 -0.023930412 -0.0681537 0.039748423 -0.018274399 0.108297005 -0.02157574 0.097230926
260 0.12785167 -0.017471598 0.03411384 -0.047470994 -0.015864782 0.07012319 0.055605993 0.079598956 0.020530218 0.12226535 0.156034 -0.08198017 0.00069491204 0.056969922 -0.08766374 -0.07556167 0.02625483 0.15163274 0.02704762 -0.095843725 0.066610225 0.09492763 -0.012157821 -0.015667615 0.043488335 -0.06932093 -0.10045489 -0.11275524 -0.04650858 -0.056134664 0.047630753 0.032140903 -0.019972833 0.04106965 -0.028210003 0.17513755 0.025523447 0.033016935 0.022196423 0.043950457 -0.032906853 0.0036911555 -0.023927048 -0.079792224 -0.09154916 0.04171668 0.059695948 0.054017615 0.09240879 -0.016857501 -0.08641949 -0.04254694 0.009752612 -0.044993494 0.07132227 0.0366306 0.07236658 -0.1062771 0.101371706 0.0414777 -0.10455511 0.15073371 -0.10189964 0.23293734
256 0.023042342 -0.013858782 0.056253903 -0.04248105 -0.09692073 -0.052965704 -0.100711964 0.0049230354 -0.0032556371 -0.028190684 0.11559925 -0.023466751 0.07630071 0.10679218 -0.08323651 0.01595091 -0.025592301 0.15816773 -0.11491886 -0.053246606 0.123048075 0.20418787 0.025897197 0.10165377 -0.047348127 0.062993415 -0.17906077 -0.025333844 -0.019083176 0.020462101 -0.0008156532 0.039163094 -0.06428483 -0.01070502 -0.07119283 0.13677295 0.1048553 -0.09913608 -0.14481282 0.061831415 0.018106245 0.1295321 -0.009048522 0.026474174 0.0074423873 -0.047744196 0.064313665 -0.041289713 0.07401634 -0.16695923 -0.10125525 -0.05739016 -0.03585771 0.014547186 -0.011230829 0.089931846 0.014766458 6.2621957e-06 0.120965794 0.029864602 -0.061680343 0.011639101 -0.060027696 0.12789524
290 0.09099678 0.055214256 0.059853908 0.10734411 0.048451792 0.03259023 -0.09129022 -0.049490787 -0.0441552 -0.057965357 -0.017761013 -0.08818653 -0.07070878 -0.07861005 0.06734379 0.041788097 -0.009170128 0.030129235 -0.06785599 0.11890077 -0.04445378 -0.17598121 0.15792711 0.046669852 -0.11473752 0.051360715 -0.27339658 -0.06445361 0.055095796 -0.04908044 0.002095551 -0.022468165 -0.13700987 0.024944557 -0.014076316 0.21148565 -0.067901574 0.06597457 0.00017530941 0.11027371 0.08774682 -0.0041864673 0.06666904 -0.053619973 -0.04534707 0.07785227 0.03243801 0.065697774 0.039748788 -0.07161212 0.087072216 0.011062854 -0.08074229 -0.09013884 -0.006216389 -0.070990756 0.03870049 -0.065501556 0.027756022 -0.012807555 0.03743488 0.0053553656 -0.11960455 0.045393553
259 -0.014527233 0.0024557065 -0.033429917 -0.0052521466 0.033265445 0.07177775 0.032266986 0.028803218 -0.036952175 -0.054140024 0.09653696 -0.11945148 -0.0004977378 0.020719035 -0.13759229 0.018977733 -0.14154893 0.2004762 -0.10900096 -0.11860195 0.08589574 0.058821864 0.07558817 -0.09124792 -0.051915918 0.025343396 -0.21807154 0.048126094 -0.024276331 0.017819656 0.037047777 -0.004136843 -0.010493329 -0.04965871 -0.13019429 0.1411971 0.06093705 -0.11154845 0.029243574 -0.02101955 -0.0253751 -0.03660694 -0.033380184 0.02230045 -0.051956903 -0.072857544 -0.01886006 0.044062838 0.0911651 0.038915668 -0.11685048 0.058459245 0.08051291 -0.04200939 -0.110983506 0.08603294 0.045636594 0.045749735 0.029504301 0.17046835 -0.0197143 0.108126506 -0.059106514 0.09042248
168 0.101550296 -0.13230138 0.10965333 0.05827405 0.04154819 0.025710337 -0.03202913 -0.04001235 -0.00481975 -0.075323746 -0.064286046 0.007836528 0.10506716 0.042304933 0.01503266 0.06482716 -0.047830645 0.088938475 -0.030352836 0.08538178 -0.014020183 0.0025784012 0.20894568 0.07907166 -0.046125762 0.094375126 -0.18014853 0.006435282 -0.028999418 0.06573699 0.101015866 0.0024894592 -0.23684083 0.06591117 0.0552091 0.13965096 -0.13300368 -0.008938041 0.018230636 0.09334771 -0.10162468 0.05879523 0.0060910136 0.038013857 -0.0504218 -0.03777475 0.059401467 -0.042751826 0.084042706 0.03635579 -0.003484995 0.05440326 -0.065794945 -0.053370852 0.041717127 0.100210235 0.016842552 -0.023169542 -0.05130716 0.095070705 0.084531 0.07933533 -0.02546714 -0.024812834
262 0.0777439 0.043503013 0.042824477 -0.03396517 0.08518568 -0.051307093 -0.0041451766 0.038879067 -0.037744172 0.051370874 0.06360231 0.06268171 0.087735206 -0.005948911 -0.1154925 0.11456087 0.01791528 0.1307255 0.0089013465 0.060964756 0.12568626 0.111090384 0.04537641 -0.005277986 -0.021714536 0.03615008 -0.16343175 -0.11662214 -0.068894796 -0.08627354 0.10757595 0.010632132 -0.097827554 -0.004383839 -0.1272095 0.17057718 0.09019496 -0.060531143 -0.0040023504 0.10156446 0.00818997 -0.0046566026 0.08592719 -0.0037887278 0.012049408 0.02460286 -0.039491795 -0.023696918 0.00640792 -0.10197891 -0.10173085 0.011639076 0.028952817 -0.06515039 -0.054660276 0.027832344 -0.06543964 -0.062115613 0.088446446 0.1725503 0.01995971 -0.0022838097 -0.041878603 0.16983353
133 0.06804479 0.031822648 0.045724668 0.045821197 -0.0026241534 0.074531056 0.032613106 -0.0546671 0.003920961 -0.08793616 -0.038154133 0.028355634 0.052407414 0.059134837 -0.032707587 -0.1451608 -0.07900261 0.060625315 -0.13530506 -0.09938395 0.029908223 0.060876265 0.08332676 -0.114710666 0.085450485 -0.09711445 -0.21592334 -0.027350152 0.0043525635 -0.05616916 0.02005606 0.040163115 -0.18464829 -0.042294998 0.015966544 0.15996505 0.097745 0.10711426 -0.14208488 0.08233514 -0.06844999 0.032381296 0.09789301 -0.029330805 0.042201534 0.13442113 0.008290867 0.0107241655 0.13589837 0.049092367 -0.06508407 -0.16600662 -0.08843522 0.0044103223 -0.13080518 0.15654945 0.081478536 0.01089863 0.022985127 0.10666436 -0.048631266 -0.024848418 -0.08176501 0.18901233
132 0.13489254 0.023576602 0.13925496 0.031035319 -0.0017661201 0.20646603 -0.00014011397 -0.015536505 0.11550548 -0.036788337 0.050047506 0.0037233643 -0.14322688 -0.065554105 -0.0017749718 -0.05191874 -0.10558501 0.06693618 0.016677983 -0.038681477 0.095212005 -0.0066859056 0.028457487 0.027808424 0.040645182 -0.10035954 -0.1449344 -0.07689793 -0.014551659 -0.13991007 -0.06608482 0.0068248673 -0.21865195 -0.01521307 0.033575635 0.23867765 0.02255457 -0.105648234 -0.23055567 -0.07780453 0.04210691 0.064779006 0.10653025 -0.040695887 0.085414946 -4.1489693e-05 -0.033235244 0.007829765 0.20426111 0.03671046 -0.030106694 -0.06401646 -0.0571164 0.053736143 -0.09835315 0.036572665 0.052991923 -0.063901715 0.06711956 0.07747085 0.01402467 -0.0057133017 -0.12437049 0.14913914
258 0.08314381 -0.1223669 0.08629508 -0.035096955 -0.012757743 0.062545314 -0.015273714 0.08153672 0.04907077 -0.08353214 0.035643347 -0.09845095 0.025992723 0.069331795 -0.13238531 0.053933308 -0.16922896 0.16098434 -0.011804593 -0.10891085 0.14117204 -0.0011763811 0.14929073 0.019071726 0.014206637 0.065793626 -0.08425616 -0.01421973 -0.0063781575 -0.118280746 0.088357046 0.012797611 -0.07069452 0.076771945 -0.0739261 0.1184811 0.09831916 -0.089447856 0.040647116 0.044304844 0.011962021 -0.13904074 0.0025907275 0.08176543 -0.15017082 -0.052382793 -0.022600707 0.05670822 0.08616849 0.033699904 0.008369741 -0.039492074 -0.044241566 -0.043695718 -0.10047026 -0.00303442 0.12267124 -0.016835257 0.1535217 -0.019390712 -0.111850016 -0.050330296 -0.05916612 0.13970387
263 0.0706945 0.004130911 0.0068292087 -0.058335677 -0.091909006 -0.07154472 0.05639219 -0.040667124 0.052270684 0.045441415 0.0051848562 -0.044811934 0.0725504 0.029899012 -0.11524102 0.062674664 0.0033729207 0.13197936 -0.020605318 0.04944523 0.14063548 0.015954688 0.042095814 0.022009285 0.054179266 0.015506418 -0.122544646 -0.104334995 -0.038878497 -0.06988781 0.097451076 0.0854395 -0.10812401 0.039642822 -0.05980585 0.09092925 -0.049841914 -0.1584733 0.00024786784 0.027209036 -0.006249451 -0.08966547 -0.02987366 0.014324233 -0.013859447 -0.038481254 -0.041823734 0.054027904 0.119901635 0.028803468 -0.111889854 0.008040187 -0.014141088 -0.14082518 -0.04395815 0.13688636 0.027366674 0.0032673138 0.07486536 0.07257445 0.036397684 0.07681071 -0.10949405 0.13638504
163 0.09354301 0.09891333 0.034989245 0.103778556 -0.08624317 0.042864386 -0.085087664 0.07664471 -0.018119195 -0.12106775 0.028106447 -0.0857315 -0.14407234 -0.11419142 -0.08515951 0.073789366 0.017238885 -0.002200498 -0.040920597 0.079677805 0.0035672497 0.06699927 0.08114707 -0.05520082 -0.017201552 0.030708088 -0.21591035 0.073576935 0.011714984 -0.036396276 0.08701775 -0.086582296 -0.10240024 0.033712633 0.022069927 0.18530984 -0.008525952 -0.116924696 0.043976814 0.035635572 0.05286359 -0.014196231 0.10501746 -0.07694049 -0.015875759 -0.01754541 0.07302872 -0.08342837 -0.08647734 -0.13583665 0.015066751 0.06191098 -0.08888073 -0.04488579 0.1184569 0.11880696 -0.104671285 -0.17447887 0.019015368 -0.021386623 0.076609865 0.16755845 -0.036242556 0.043847453
495 0.111438885 -0.0044440855 0.010236736 -0.05160699 -0.06738543 -0.03972804 0.054733075 0.09889971 -0.031473503 -0.052472208 -0.06002959 -0.08283881 0.07106732 -0.025809027 0.02798639 0.019450206 -0.09916892 0.14951327 -0.05333261 -0.08153682 0.05970464 0.14303559 0.02561384 -0.04496545 0.012579601 -0.05121417 -0.21714027 -0.09882917 -0.11524923 -0.06182348 -0.034356676 0.03525577 -0.00083466916 -0.06532035 -0.050754976 0.14321455 0.009237224 -0.04026892 -0.05274508 -0.029517556 0.040791646 0.050489355 0.027351119 0.016316902 0.055527892 0.034728494 0.024764847 0.02875548 0.07832413 -0.038651947 0.035141334 0.033574503 0.015676288 -0.026046872 -0.03223511 0.116622075 0.012147938 -0.1362774 0.09730678 0.08608569 -0.0245479 0.017363226 0.036297277 0.16888662
424 0.11489738 -0.11153909 0.09830243 -0.103900105 -0.06170076 0.05601591 0.087630376 0.043588907 -0.06578765 -0.032390974 0.01932377 -0.05542609 0.0013567156 -0.049708433 -0.013839007 -0.014859765 -0.059816517 0.09600217 -0.11145162 -0.055812825 0.11953373 0.12107134 0.07851504 -0.013991199 0.059619926 0.011564563 -0.23561156 -0.09908027 -0.07978406 0.016632525 -0.04689647 0.08618672 -0.040012747 -0.029812884 -0.047845624 0.1423138 0.053009793 -0.11415914 -0.019369336 0.0026170968 0.055038244 -0.041685484 -0.002847378 0.03991095 0.017730307 0.033195846 0.08565636 -0.0046342453 0.07304447 0.091847494 0.0009345765 -0.09946575 -0.039031144 -0.050182674 -0.06228384 -0.00078805303 0.07507491 -0.03189049 0.06088335 0.06380707 -0.035620812 0.046479646 -0.12788008 0.068575084
134 0.064332716 -0.09953229 0.021927495 -0.012859333 0.014640594 0.08878017 0.08559454 0.04184542 -0.042250674 -0.025911367 -0.066723846 0.043071926 -0.035766095 -0.0147850085 -0.11695057 -0.098910384 -0.14318064 0.12805596 -0.06751174 0.10279532 0.07043172 0.11152992 0.14565861 0.022791525 0.07354864 -0.10995284 -0.16411538 -0.19310363 -0.0800724 -0.058299616 0.0053562345 -0.030029159 -0.1416197 0.04639941 -0.04894596 0.15267172 -0.12706244 -0.01697958 -0.047147717 -0.12109566 -0.011548835 -0.0050974227 0.08949793 -0.002949335 0.09972929 0.031935055 0.013289981 -0.01159162 0.16228127 0.010208314 -0.055586472 -0.09902051 -0.09900688 -0.027632816 0.013659356 0.05500846 0.15894629 0.015627397 0.0761054 0.0136553245 0.0027103717 -0.102069564 -0.12159942 0.10660651
203 0.07008888 0.1311527 0.032818787 0.122158885 -0.0074011036 0.0011964128 -0.15108229 -0.03484187 -0.0077706855 -0.0479823 -0.0454222 -0.0052538086 -0.027825942 -0.05524474 0.10434435 0.051241927 0.0565524 0.026482778 -0.041640703 0.13337782 -0.016125062 0.038833223 0.058889575 0.048189636 -0.026365474 0.15218925 -0.16605152 -0.025531515 0.038387805 0.058119502 0.13099642 -0.047856282 -0.20697655 -0.035221167 -0.04757806 0.1810955 0.03468407 -0.0900809 0.09798035 0.06079455 -0.023572737 0.014161213 0.14161062 -0.09219167 -0.07221871 -0.062055826 0.07956971 0.0013144498 0.020607911 0.027835116 0.047079634 -0.05347102 -0.016646141 -0.07134495 0.03639637 0.019916058 -0.013760526 -0.07821187 0.055000264 -0.03970318 -0.0028847342 0.148756 -0.03608197 0.017602697
503 -0.017661888 -0.032808322 -0.0041073374 0.00501229 -0.036004253 0.030891348 0.010226733 0.0538501 0.020154981 -0.09234651 0.06529629 -0.08592619 0.04654864 0.015316103 -0.13211171 -0.066927604 -0.11441027 0.12569821 -0.09256503 -0.055636104 0.082147025 0.07015667 -0.02319534 0.0005669965 0.01862651 -0.022998467 -0.11782525 -0.11508881 -0.017470926 -0.076584674 0.0111776395 0.0866514 -0.02230734 -0.05409892 -0.10826515 0.18584296 0.022361657 -0.2265998 0.042934783 0.07105824 0.026631482 -0.17918752 0.0043279114 -0.07354872 -0.06047982 0.013285472 0.061757386 0.00866873 0.112454064 -0.008341281 -0.06733201 -0.057010025 0.07140089 -0.016955934 0.043485712 0.015594674 0.0559677 -0.0721007 0.061102264 -0.035899144 -0.037224554 0.011580753 0.021984821 0.1636669
39 0.10255114 0.10557903 0.07259983 -0.011615737 -0.041526776 0.04773456 -0.021922683 0.04624116 -0.066827945 -0.15793285 -0.004186582 -0.040155064 -0.04193652 -0.04708752 0.013707039 -0.022581298 -0.025080532 0.07145625 -0.024269998 0.23764949 -0.07331908 -0.027607303 0.13807932 0.08217507 0.017996576 0.017109677 -0.20378898 0.090455316 0.037074786 -0.07362864 0.08764626 -0.09387075 -0.17725176 -0.04860144 -0.059882212 0.15799107 0.003636897 0.13343161 0.12719467 0.06415348 -0.061801765 0.04654581 0.04994479 -0.0004196187 -0.0047231247 0.0058461865 -0.004325821 0.07747488 0.0018899014 -0.10752616 0.025979765 -0.0009237983 0.030406162 -0.12417277 0.019845624 -0.0034258645 0.0865502 -0.06255105 0.035663046 0.0017086306 -0.030412106 0.09687535 -0.060097583 0.048603725
558 0.048190348 0.08534544 0.06536215 0.12568945 0.073066145 0.057440422 -0.023051748 -0.048311267 -0.065072745 -0.06514094 -0.055836245 -0.1088513 -0.08545485 -0.023239605 0.031651232 -0.021937693 -0.0060011167 0.07091337 -0.15371372 0.17859054 -0.057147037 -0.039392084 0.1448314 -0.011517326 -0.03385917 0.04420601 -0.17698386 0.06108299 0.12616268 0.025418358 0.036224306 -0.007556895 -0.22848901 -0.07868766 0.036579594 0.15917763 -0.04415094 0.033594176 0.060900174 0.010631648 -0.059873596 -0.099044174 0.11138737 -0.048695736 -0.026331611 -0.027377788 -0.010147816 0.14812435 0.0017268762 -0.018546458 -0.079048716 -0.046370026 -0.049901903 -0.09492151 0.060066268 0.0862537 -0.0050379345 -0.13290446 -0.037149455 -0.030400107 0.09946016 0.06386421 0.0059442874 0.10133442
611 -0.04440485 -0.03153752 0.0214135 -0.12466972 0.053836077 0.0045820307 -0.047595914 0.041893486 0.1004026 -0.0326525 -0.009197529 -0.0332711 0.11708632 0.109910056 0.002249185 0.013552599 -0.07196007 0.13278186 -0.13407221 -0.025092484 0.060160108 0.05455656 0.041115414 -0.053964715 -0.02683279 -0.018401895 -0.15536417 -0.20528634 -0.019747166 0.007881195 -0.041755494 0.063590005 -0.020241812 -0.1086156 -0.025482623 0.23932648 0.009034875 -0.017719375 -0.06572227 -0.0053269374 0.021953717 -0.04071689 0.039984737 0.12883182 0.016372515 -0.079523675 0.009044118 0.09943039 0.024926562 -0.0302941 -0.16310981 0.08095342 0.0012850986 -0.109043725 0.014294156 0.019409485 0.027805047 -0.036048595 0.0434696 0.06772714 -0.094606034 0.09547429 -0.19229196 0.2076766
166 0.14307664 0.05741409 -0.0007046597 -0.02896186 -0.12805878 -0.020500194 -0.005944963 -0.017973645 -0.12528683 -0.08283169 0.06743076 -0.047693357 -0.10112313 0.011780578 0.023112904 -0.00837347 -0.009041776 0.077458784 -0.15125534 0.09218152 -0.02711624 -0.072280355 -0.021816695 0.02341178 -0.037963334 -0.003215999 -0.16333309 -0.00084707665 0.103624314 0.0090615535 0.08780029 -0.101867095 -0.23827516 -0.05310676 -0.021066718 0.16652815 -0.021450128 0.0043012574 -0.039065674 -0.012722128 -0.05659361 0.02514312 0.021946825 -0.0073633594 -0.014852771 0.023200829 0.12611893 0.087239645 0.030727413 -0.11343011 0.008070743 -0.05969034 -0.09725613 -0.15676427 0.00461173 -0.03352663 -0.06391726 -0.120781936 -0.015221153 -0.14646894 0.0556867 0.18395896 -0.05785805 0.023093553
257 0.03332271 -0.022443878 0.12273659 0.0059686042 -0.022799328 -0.11749812 0.12538134 -0.01924129 -0.096997395 -0.04817076 0.01770026 0.039235078 0.08217228 0.0074941963 -0.04610062 -0.061264537 -0.025700677 0.14490578 0.01780359 -0.08919849 0.110160895 0.14110012 0.050839584 0.006352785 -0.10509217 -0.007857843 -0.17723995 -0.094922304 0.029784849 -0.034408752 0.15499502 -0.08553209 -0.06730663 0.009943308 -0.08780073 0.121420324 -0.0041733715 -0.16680278 -0.01670865 0.08079002 -0.03714418 0.0996643 -0.07099636 -0.004667763 -0.016713437 0.045068335 -0.023433723 -0.05430451 -0.030630728 0.011031837 -0.049840406 -0.07013876 0.07480003 0.01774941 0.07615566 0.03194762 0.13704051 0.045484334 0.10660607 0.04828822 0.0015713262 0.026902081 -0.08618431 0.21636945
21 0.12811565 -0.04015706 0.0756287 -0.028397726 0.04185304 -0.047243744 0.024338726 0.11309885 -0.016484909 -0.15085255 -0.011360775 -0.04917624 0.11672633 -0.00086695235 -0.07352333 0.015829561 -0.053407654 0.13217133 -0.08176138 -0.04465992 0.084488034 0.016132692 0.14736418 0.0804563 -0.013054142 -0.06372105 -0.18021117 -0.04377123 0.007411467 -0.10713755 0.038845435 0.026942424 -0.09542973 -0.093982324 -0.14835341 0.10246676 0.13477072 0.067139536 -0.030077532 -0.05622934 -0.13771614 -0.087284625 -0.07611614 0.045350447 -0.016241832 0.023656962 -0.014411201 -0.027715992 -0.010338083 -0.037198137 -0.12780778 0.038156245 -0.025177721 -0.03603916 0.025116956 0.09647789 -0.10395356 -0.010695852 0.18026933 0.021606682 -0.025420327 -0.013368096 -0.024479192 0.08695912
729 0.02152663 -0.030220559 0.07788859 0.070157215 -0.08468784 -0.04901919 -0.027344953 0.019146632 0.0803938 -0.021428121 0.123709865 -0.047813118 0.068826385 0.018017145 -0.15169278 -0.08128783 -0.12550536 -0.022852667 -0.14055106 0.04641829 -0.055756945 0.0820619 0.02196014 0.043955572 0.022234187 -0.011414517 -0.17956449 -0.0909764 0.00090692454 -0.10633459 0.112038456 0.06397649 -0.0827754 0.056314304 -0.093398795 0.121389754 0.01842519 -0.04036316 -0.15760754 -0.082712226 -0.106200345 0.009085376 -0.11117787 0.013812862 -0.017832426 0.03751439 -0.08117257 0.042372297 0.037569884 0.0059134513 0.018644944 0.1222984 0.0488759 -0.088921085 0.028434655 -0.050469697 0.014747903 -0.06489299 0.19274446 -0.044204853 -0.07888213 0.10655454 -0.11821791 0.06644252
264 -0.013844142 -0.06394993 0.0050980696 0.104741916 -0.05439097 0.0030104723 -0.03419439 0.16642039 0.00572064 -0.050345965 0.029825227 -0.14904167 0.16766746 0.077995315 -0.067941636 -0.026381282 -0.031822313 0.18786146 -0.08255389 0.018129652 0.09594132 0.1258412 0.055086713 0.0009250967 0.11761997 0.01132104 -0.11021012 0.023793794 -0.0011592781 -0.034032203 0.074778125 0.011916647 -0.046068314 0.074064255 -0.09682344 0.20270196 -0.024379527 -0.048328098 -0.006080817 -0.049009413 -0.0492895 -0.0924031 -0.07829693 -0.13415784 -0.08452097 0.013141435 0.09033805 -0.050100278 -0.020845635 0.027615529 -0.07818021 -0.036563087 -0.09434245 0.0611119 0.010435941 0.112837456 0.04326713 0.049862195 0.20776173 -0.04842747 -0.11586307 0.056535456 0.07479724 0.069717325
525 -0.07722475 -0.031155618 -0.017513184 -0.0019743147 -0.048458915 0.079498574 -0.09671925 0.05435316 -0.015273246 0.028574377 -0.041315217 -0.04320275 0.092225574 0.031565856 -0.13809925 0.025141262 -0.027093362 0.2785175 -0.049828503 0.0205195 0.09046487 0.19628102 0.024442669 -0.0036826716 0.10073727 0.059721995 -0.20932887 -0.11599326 -0.08871095 0.023966007 0.0428431 0.04743106 -0.117720865 0.028083587 -0.030873958 0.03785621 0.061847094 -0.03294323 -0.11202745 -0.07917786 0.0010984412 -0.036112074 0.03887394 0.010552133 -0.032675624 0.088969186 0.034185346 -0.047705334 0.120948635 -0.02163901 -0.045365963 0.064839505 0.015030433 -0.077029034 -0.02366061 0.08990316 -0.009399462 -0.037351113 0.19488634 0.066208735 0.038106162 -0.0033027355 -0.07349871 0.04124421
255 0.0041762115 0.05252351 0.103447035 -0.04920031 -0.10234693 -0.051178522 -0.10055857 0.018443035 0.038726278 -0.039151896 0.041644886 -0.026570562 0.03043249 -0.03179115 -0.022313038 -0.1319713 -0.0644402 0.13374355 0.008981473 -0.09362317 0.07155865 0.018337931 0.08613246 -0.03892569 -0.03841413 0.06586921 -0.1693292 -0.08641074 -0.049815144 0.064403795 0.062369283 0.012669238 0.06473359 0.0667298 -0.197837 0.06127567 0.053934827 -0.04843683 0.055961374 -0.013940694 0.0561744 -0.073822685 0.08240072 -0.11126149 -0.027210634 -0.007309753 -0.027149884 0.059332777 0.12643282 0.021803617 -0.07842289 0.049550146 -0.040864885 -0.077106506 -0.036240894 0.14018641 0.08581832 -0.12962358 0.12616394 0.03577925 -0.14778627 0.05335805 -0.14368254 0.08185184
534 0.047760915 -0.038352985 -0.053250298 -0.07451425 -0.019933991 -0.0068140943 -0.013879446 0.006187611 -0.008451991 0.020346478 0.03355657 0.022888448 -0.022584794 0.026739322 -0.13704969 -0.026249716 0.024691638 0.054529667 -0.11333613 -0.064896435 0.031298794 0.10927964 0.098847166 0.017125808 -0.008656058 0.003513365 -0.15638776 -0.10721014 -0.06900464 0.1152407 0.21882209 -0.024132047 -0.10989251 -0.0077954484 0.009622538 0.09312889 0.111814916 -0.022057494 -0.06536129 -0.08928501 0.050857138 -0.07979072 -0.06724003 -0.04589815 -0.07121121 0.11725216 -0.060170807 -0.029915377 0.066946745 0.052237444 0.003549812 -0.1099022 0.011312453 -0.13589942 0.012899007 0.16550103 0.061158713 -0.04167072 0.12736754 0.060944986 -0.123402506 0.09466566 -0.015005335 0.1358064
167 0.06364384 0.14697458 0.061910767 0.046975233 -0.1343403 -0.068479545 -0.11069812 -0.0019467984 0.0053543015 -0.114138156 0.0075240233 -0.0055169906 0.02149231 -0.04142313 0.02802281 -0.009919944 -0.104838185 0.053626776 -0.014561569 0.0901911 -0.04177909 0.10035877 0.12687066 0.0705182 -0.069289386 0.0077896677 -0.17270225 0.0002504171 -0.08196461 0.1184626 0.10548547 -0.022274872 -0.14049399 -0.014000589 0.0065983515 0.13366613 -0.035540495 0.0042292434 0.009731372 0.051101778 0.15069233 -0.008420547 0.056187436 -0.07085156 -0.015418619 0.03671379 0.074839875 0.025755176 0.06456832 -0.1289806 -0.005266889 0.04874166 -0.024152404 -0.0063901283 0.13244006 0.07208293 -0.01062886 -0.030615516 0.028270392 -0.048424263 0.06955705 -0.047516454 -0.10358756 -0.008019644
296 0.0708438 0.09831804 0.010693112 0.08382024 -0.047073506 0.103908494 -0.089834124 -0.017126612 -0.042064402 -0.13088983 0.032478586 -0.12354876 -0.06396657 -0.02143176 0.090798095 -0.09777889 -0.02081821 0.04323531 0.024735104 0.2332411 -0.068974026 -0.022763185 0.03467102 0.06994304 0.12097746 0.024939297 -0.11294663 -0.034373056 0.01195188 0.008273124 0.0058248616 0.022526793 -0.124510385 0.07435215 -0.014082176 0.21218242 -0.09873428 -0.010845205 0.007391224 0.0072069825 -0.063716635 0.07937247 0.15902957 -0.052094504 -0.08732519 0.00829527 0.066785365 0.030457756 -0.029279191 0.020956278 0.043306533 0.08110188 -0.11731826 -0.10806047 -0.05557749 0.023540657 0.048234023 -0.08823363 0.17175831 -0.04612787 0.074456535 0.12265954 -0.1938215 0.051000264
22 0.070183694 0.07312165 -0.09580072 -0.0017925934 -0.097392745 0.008264708 0.052215353 0.003587076 -0.033244085 0.0027509003 0.07871846 -0.063689545 0.10658994 -0.024614332 -0.027320525 -0.07294991 -0.039674483 0.1108424 -0.029859556 -0.05530856 0.10210159 0.034609944 0.019997064 0.012346254 0.0891966 -0.038032293 -0.22524048 -0.16222109 -0.0124601405 0.0097702285 0.056664906 0.03457642 -0.10056657 0.0647567 -0.16584474 0.08691975 -0.028658373 -0.087242246 -0.09556836 0.026747406 -0.0585213 -0.085090294 -0.009972756 -0.019526666 0.07992075 0.06289848 0.049526088 -0.08685149 0.09143115 -0.017309682 -0.07787407 -0.0040286602 0.024084162 -0.05440041 0.003350386 0.07439548 0.017557386 0.047525126 0.08847944 0.01926659 0.050176542 0.07203675 0.02334363 0.14075632
357 0.028832633 0.037276763 0.014674913 -0.010984945 -0.028189667 -0.016377876 -0.031541117 -0.049966063 -0.048335593 -0.037739918 -0.008245263 0.003781456 -0.07178181 -0.056351718 0.0041476293 0.04849154 0.014459709 0.09450748 0.013812727 0.21370809 -0.041930027 -0.11202517 0.11725279 0.0077083595 -0.044761285 0.04803709 -0.23682155 -0.08236658 0.110586196 0.043095015 0.09979625 -0.0706613 -0.25658882 -0.017411506 -0.027638359 0.11323448 0.0057935743 0.021245586 0.058926538 0.1390856 -0.00041414754 -0.13833919 0.08455758 -0.0051256716 -0.02063738 0.062549666 0.023522649 0.07279372 0.046331804 -0.019087104 0.06707528 -0.09909285 -0.12722225 -0.05606326 -0.0075462246 -0.027044198 0.035382528 -0.09546819 0.007832839 -0.043426156 0.12548569 0.11276195 0.012686986 0.07838729
138 0.11687406 -0.023391789 -0.055295594 -0.013124583 -0.07021452 0.103794105 0.048963714 -0.02488698 -0.024112053 -0.093120664 0.048840277 -0.0056856037 0.026093896 -0.036631275 -0.035982523 0.04553364 0.0005504049 0.026469326 -0.0931519 -0.022495957 0.12656024 0.12343135 0.09806756 -0.0017445465 0.08666462 -0.08078101 -0.26313674 -0.091588564 -0.0035849046 -0.10353932 -0.002095473 -0.069459304 -0.11911701 0.047036555 -0.047323424 0.09965026 0.06644233 -0.13128424 -0.096264094 -0.09444787 -0.071806476 -0.02953484 0.05419164 -0.040948156 -0.019561244 0.15838575 -0.019346166 -0.035863 0.20694558 0.09186929 0.0132736685 -0.115095265 -0.10605505 0.028918562 -0.0062162094 0.17146555 0.033428367 -0.022930272 0.07795546 0.01856319 -0.010352558 -0.023428276 -0.011120951 0.11809316
289 -0.07388987 0.07755903 0.023897437 0.0036483917 -0.105193965 0.16420084 -0.03206497 0.012615264 -0.05893035 -0.15790369 0.026284693 -0.09605196 -0.047766943 -0.051106203 0.05277603 -0.014484936 -0.07376836 0.13721232 0.06467974 0.16143443 -0.05949145 -0.10556255 0.037162192 0.14675705 -0.022256196 0.009317221 -0.23049775 -0.028401585 0.094835065 0.06977534 0.060567677 -0.1386145 -0.099848084 -0.009935344 0.057262 0.2932281 -0.008187103 0.017588062 -0.002875286 0.05070448 0.015509197 -0.004192919 -0.035858274 0.004625418 -0.13235638 0.0898266 0.0029067334 0.035715595 -0.032882184 -0.094589286 0.059870742 -0.013677634 -0.028784605 -0.07592817 0.06761153 0.037066583 0.11529032 -0.11524972 0.051607117 -0.027486833 0.021950554 0.0709383 -0.06730874 -0.05160814
748 0.100283265 0.0019103455 0.123624384 -0.030310456 -0.049699835 0.054277938 0.041236803 0.039002158 0.048955157 -0.059610296 -0.044047143 -0.13921301 0.13985293 0.11886119 -0.098462984 -0.033557065 -0.107030116 0.057178296 -0.02919744 0.0015936557 0.07807771 0.08535988 0.23506393 0.09298538 0.051130872 -0.004866572 -0.19351973 0.010115228 -0.06701109 -0.05350499 0.11907061 -0.04295395 -0.057010144 0.072758876 -0.07297228 0.041757297 0.15157488 -0.04303564 0.010104201 -0.012345703 -0.038534548 -0.005423983 -0.06100939 0.06812578 -0.030309398 -0.054272342 -0.03229886 0.08449675 0.04402582 0.07550715 -0.057681408 0.04155143 0.049769104 -0.06106884 0.032936547 -0.008936523 0.058646895 -0.09634169 0.10104991 0.13100842 -0.024064789 -0.045755815 -0.051121354 0.093518384
412 0.09130578 0.053119488 0.03193991 -0.01986104 -0.12720677 -0.030978436 -0.019537384 0.04869118 -0.051670488 -0.001488189 -0.06375475 -0.14026779 0.020748237 -0.028229844 -0.06405764 -0.02932635 -0.034733232 0.11600547 -0.0762466 -0.1142861 0.10943269 0.052262895 0.00736155 0.012244461 -0.13291332 -0.040301383 -0.13299625 -0.0023240836 -0.0013735327 -0.20164306 0.09330071 0.010350628 -0.06510949 -0.012425447 -0.15393354 0.1578249 0.06325352 -0.09795224 -0.044673398 -0.07343532 -0.020804256 -0.030145206 -0.050066266 -0.029413952 0.08298809 0.096983284 -0.0020341065 -0.0050444435 0.050330553 0.024798851 -0.043844543 -0.09814924 0.07870071 -0.107135534 -0.01147931 0.03539091 -0.013991952 0.0033060268 0.094594054 0.05377133 -0.0061900476 0.030533338 -0.057731576 0.19980273
136 0.14370549 0.009749949 -0.06202478 0.007685501 -0.07068662 0.124775715 0.015447587 -0.008931503 0.04310478 -0.030983591 0.011299026 -0.10602011 0.044665325 -0.12141257 -0.101511195 -0.05029995 -0.0277843 0.11410984 -0.11408711 -0.05090329 0.024933873 0.09355595 -0.00081293547 -0.06493989 -0.063981235 -0.10820884 -0.21722691 -0.06009553 -0.16615348 -0.06406612 0.014575241 -0.00754575 -0.15401874 -0.07037766 -0.047718 0.22377387 0.00485265 0.041156113 -0.11530164 0.06338163 -0.0105281565 -0.06357078 0.026491025 -0.0080649415 0.09581617 0.011339494 -0.04664417 -0.10167064 0.19306566 0.08408785 -0.1210838 -0.18589291 -0.013909114 0.014364092 -0.06330396 0.14230731 0.06687947 -0.022496277 -0.038310904 -0.054962132 0.046104472 0.05255227 -0.1203994 0.05837722
605 0.05289115 -0.10138679 -0.015505817 -0.025397973 -0.07099229 0.0143403215 0.016212264 0.1356209 0.014287227 0.014539727 -0.016165227 0.020800145 0.064387985 -0.045471206 -0.15990864 -0.006546197 -0.075742885 0.08768776 -0.10894672 -0.060749628 0.075883165 0.09324074 0.123835534 -0.048724912 -0.15769109 -0.025317987 -0.20540787 0.0077698394 -0.048503947 0.011785916 -0.034033164 0.12307501 -0.031616867 -0.020291654 -0.11958141 0.1824011 -0.008862082 -0.10913939 -0.05564384 -0.10495991 0.03958594 0.04894878 -0.04164388 -0.011559665 0.027631816 -0.05010226 -0.0116885025 0.1119278 0.09122742 -0.06690977 -0.03880838 -0.007926448 0.04002112 0.020693736 0.072360806 0.037386592 0.0036436585 -0.0545204 0.12664773 0.04973067 0.031013241 0.14899841 -0.096477486 0.050909057
20 0.12565379 -0.023418644 -0.03779961 0.044637114 -0.10415303 -0.045486517 0.01382902 -0.03479608 -0.025186324 0.08951941 0.04606782 -0.114644825 0.11548502 0.053914875 -0.062103078 -0.05150618 -0.0019228288 0.16450389 -0.10083267 -0.035683602 -0.01379447 0.080131374 0.0018500213 0.07303748 0.043413665 0.05180278 -0.16688718 -0.03369093 -0.06913774 -0.02258718 0.026144596 -0.008405603 0.014114469 -0.04168419 -0.050791215 0.12159335 0.104388304 -0.08524563 0.053080652 -0.003005671 0.023451172 0.04069787 -0.08660349 -0.10172601 -0.034115538 -0.016299335 0.014081373 0.06955199 0.081122756 -0.04233517 -0.020782549 -0.046709657 0.025454048 -0.087428644 -0.0031823611 0.09679702 -0.024916893 -0.0018504766 0.11275365 0.13178451 0.017429052 0.14889559 -0.1567958 0.14699645
669 0.009156405 -0.09083482 0.11389222 0.101142354 -0.056546435 0.019548757 0.12981102 0.027985435 0.16446039 0.06495825 -0.0028236017 -0.03544312 0.024501413 -0.011207296 -0.088241264 -0.005023907 -0.021093298 0.0609256 -0.09971037 -0.1076554 0.03966038 0.03831208 -0.03611171 -0.042067207 0.019231383 0.015579417 -0.10201358 -0.09850379 0.007573591 -0.034975406 0.13141188 0.08038282 -0.12862964 0.04456855 -0.104451925 0.17236902 0.0827421 -0.016364632 0.044683624 -0.0007244989 -0.029988924 0.0063638175 0.078194596 0.1467527 -0.044730756 0.023135375 0.03957343 0.045240793 0.13846722 -0.032046624 -0.12376098 0.08772001 -0.047006477 -0.026725342 0.028681997 0.110087834 -0.06426041 -0.12435128 0.10598976 0.077978425 -0.03017231 0.076533385 -0.044151567 0.1404947
19 0.12053088 -0.022668144 0.034421295 -0.034901034 -0.065339714 -0.044848155 0.086747974 0.014915597 -0.0058329077 -0.10998189 0.13256228 0.01991036 0.07667881 0.10849385 -0.04902086 -0.047787648 -0.104944475 0.15286176 -0.0051230364 -0.032656055 0.14754812 -0.0031602576 0.12992829 0.11827276 -0.03636445 0.10805364 -0.07416772 -0.0706154 -0.06292971 -0.09187517 0.12176315 0.022572365 -0.038685217 -0.019648427 -0.08476543 0.114790164 -0.025785996 0.022613678 0.061456133 -0.103721 -0.011623115 -0.05061272 -0.019735985 -0.020201093 0.010060127 0.022006316 -0.038014412 -0.024507912 0.16379671 0.01833636 -0.09830715 0.088971265 0.026330777 -0.051681146 0.031629052 0.029011592 0.07398451 -0.024712082 0.073222555 0.0055192364 -0.0011789445 0.13654609 0.043153867 0.14880165
164 0.12758133 -0.008835299 0.014139261 0.053510945 -0.12109769 -0.02895238 -0.009790347 -0.10210926 0.01136009 -0.1076872 0.0027260343 -0.077420436 0.12799786 0.0030044797 0.02460104 -0.040625166 0.031365626 -0.06329046 0.042565227 0.07727598 -0.056755077 -0.041969236 0.097592205 -0.047585156 -0.0017702146 -0.009694621 -0.16391507 -0.014646588 0.03494815 0.016779954 0.019682672 -0.12009605 -0.1833054 -0.072695285 -0.03965846 0.22276787 -0.046129912 0.023457263 0.020709323 0.019604377 0.009421604 -0.1121402 0.11211575 0.026122214 -0.100730374 -0.12781017 0.1029383 0.11077477 0.09378385 -0.059768125 -0.015783513 -0.107625835 -0.05683001 -0.04743368 0.103465416 0.052656896 0.06267449 -0.122703575 -0.05739741 -0.019617407 0.03552018 0.047739 -0.10373254 0.09524875
254 -0.014244813 -0.009216726 0.04822464 0.02177526 -0.0027294809 -0.025059823 -0.12430541 0.06404665 0.07865408 0.019381765 0.0031119587 -0.04921826 0.14938243 0.07728792 -0.08270841 0.010221947 -0.06162701 0.11072417 -0.06651917 0.023304008 -0.024645 0.09803552 0.1617565 -0.05208322 0.0069046635 -0.023712128 -0.22221504 -0.041405104 -0.04145616 -0.052101575 -0.024764393 0.034711115 -0.029032197 0.01815809 -0.0692938 0.1250626 0.10481199 -0.0425961 -0.026267735 -0.05115605 0.057937663 -0.09462358 -0.09010931 -0.0049416116 -0.05665274 -0.026412563 0.0369973 -0.0020754272 0.13245079 0.004041806 -0.171441 -0.016203292 -0.021618983 -0.042225048 -0.0176488 0.057246197 0.019960217 -0.046718072 0.14804325 0.037072256 -0.07439202 0.05034889 -0.07113222 0.065538585
18 0.015017933 -0.046572953 0.10168257 -0.014581916 -0.2299659 0.011509533 -0.061021175 0.021298138 0.037406754 0.009370266 0.033687066 -0.1467948 0.10689147 0.103311874 -0.040972676 0.07365829 -0.041855525 0.12871951 0.005829948 0.053744193 0.04961018 0.12792408 0.026821548 0.027461603 -0.03383892 0.058973555 -0.026677772 -0.06288763 -0.04916628 -0.01178668 0.20643379 -0.014496806 -0.07293687 -0.008737939 -0.030411722 0.14335537 -0.031382337 -0.05930605 -0.052617215 0.0097130835 -0.11760748 -0.12308943 -0.042229407 0.012430866 -0.03142071 -0.09223869 -0.000287205 0.10345524 0.13453609 0.06171321 -0.05395061 0.035283193 -0.074991085 -0.07289743 -0.016043298 0.06689413 0.020120619 0.013487848 0.06988479 0.09616245 0.022413198 0.08470995 -0.07795416 0.014327408
587 0.08578153 0.047917563 -0.058697928 -0.056546483 -0.02541953 0.024547866 -0.086602286 0.07601025 0.06902972 -0.06082393 -0.06837594 -0.06895741 0.010129104 0.13916971 -0.13500081 0.03414156 -0.09888686 0.12503351 -0.036701463 -0.038479455 0.050781585 0.08928068 -0.04768288 -0.031937346 0.03740103 -0.02220783 -0.16473764 -0.17044799 -0.04228883 0.11081287 0.12830585 0.040249668 -0.07390091 -0.068511374 -0.11736928 0.19110388 0.085331276 -0.113030404 -0.072164126 -0.020731464 0.018596033 -0.033590388 -0.033624783 0.07095458 -0.0048695453 -0.0020167946 -0.02060532 0.059667803 0.112509884 0.070663534 -0.043765936 0.08098362 0.12408424 -0.055607613 -0.028884362 -0.013300354 0.0041519175 -0.032374546 0.18377547 0.1217711 0.036275905 0.0950167 -0.018925186 -0.011615442
153 0.15056992 -0.10153961 -0.048190825 0.040360373 -0.06027988 0.13656029 -0.17740211 -0.024104424 0.04033454 -0.039787684 -0.049919765 -0.028975323 -0.07057365 -0.066715494 -0.12262273 0.0045184237 -0.06603073 0.07119175 -0.11843388 -0.1454022 0.048958585 -0.12797274 0.053189367 -0.0026872624 -0.08770056 -0.11064096 -0.15084434 -0.16040532 0.049096707 0.0066527403 0.07278982 0.09328509 -0.19187681 -0.035314202 -0.0680371 0.1063947 -0.102194294 -0.0202505 -0.05260799 -0.06793816 -0.045812413 0.032870535 -0.0129859485 -0.078392334 0.103207506 -0.005925587 0.013240457 -0.025236344 0.20314479 0.1671223 -0.10048803 -0.08572692 -0.06764402 -0.043842375 -0.012181351 0.18183134 -0.008295655 -0.07955815 0.012848355 0.0055341474 0.04546157 -0.06836887 -0.08009595 0.19144478
297 0.02125847 0.060036093 0.03332193 0.047293644 -0.06705105 0.0015246278 -0.051383197 0.036446042 0.03528428 -0.27725303 -0.09754611 -0.1089092 -0.06936346 -0.011421535 0.07125741 -0.0009327608 -0.113764085 -0.003441262 -0.029466458 0.18542007 -0.013040761 -0.024219263 0.10187583 0.02819347 0.034175616 0.08339918 -0.2665849 0.04683912 0.184917 0.0012325371 0.119049445 0.040344223 -0.13062829 -0.03536095 -0.022993859 0.16612864 -0.03831645 0.040560447 0.027303783 -0.02845419 0.051729593 0.053609196 0.05735472 0.0073277033 -0.010954285 0.119523 0.13895985 0.065305345 -0.046371993 -0.037099615 -0.038163465 -0.08507731 0.009034113 -0.021525724 0.016368762 0.032521274 0.052536286 -0.10421289 0.009554883 -0.043337684 0.07150091 0.037842818 0.05734288 0.087646276
135 0.10030414 -0.0012011259 -0.05021053 -0.11828673 0.0075992486 0.063907735 -0.078078344 -0.071541116 0.079843745 -0.11277112 0.0038922331 -0.10005367 -0.055608533 0.024854967 0.050145 0.01280875 -0.101496965 0.12092082 -0.17108023 -0.035600934 0.16208836 0.11435254 -0.027869035 0.0097365575 0.13950644 -0.101944424 -0.17863274 -0.124181986 -0.024761213 -0.07076351 -0.0631851 0.0065804967 -0.18641904 0.0782489 -0.015213486 0.256718 -0.100341104 -0.040113043 -0.02577443 -0.07030902 -0.004701316 0.08932303 0.07286199 -0.09827138 0.0049095983 0.031011818 0.003329463 -0.09736892 0.11523121 0.036740914 -0.052654617 -0.08727635 -0.06663262 -0.05154423 -0.14780256 0.03660054 0.0067911264 -0.066601306 0.041128725 0.020911654 0.028262727 -0.028187225 -0.11543215 0.04918262
155 0.08565517 -0.13436158 -0.006800627 0.110006504 -0.0075926296 -0.036961652 -0.02485664 0.011646047 -0.0049271854 0.069719896 0.051683314 -0.12565613 -0.050833207 -0.10253658 0.027443154 -0.02493019 0.026277518 0.15198904 -0.1460344 -0.14928737 0.13828419 -0.019294646 0.00014873063 -0.008170355 0.040915243 -0.14378968 -0.2029768 -0.021188052 -0.20921655 -0.03338818 0.0115609225 -0.040308036 -0.18186678 -0.025694938 -0.14385487 0.15426107 -0.077784 -0.09445343 -0.092208326 -0.057338595 0.044554777 -0.02331242 -0.02401447 -0.12400121 0.16836858 0.16409664 0.060894288 -0.05513192 0.12798066 0.005605989 0.1421964 -0.047491815 -0.03449698 -0.052806046 0.01808213 0.09490673 0.05672278 -0.03191532 0.112205915 0.08884764 0.0279504 -0.044195913 -0.114663355 0.05795729
253 -0.00523812 -0.052703694 0.06503601 -0.08511641 -0.059864778 -0.018122213 0.023296285 -0.026271345 -0.020204544 -0.020533796 -0.033147346 -0.08308245 0.057854336 0.04104661 0.01998202 -0.03172945 -0.019634722 0.05212765 -0.06797208 -0.011469221 0.20546696 0.09058031 0.059423245 -0.023612482 -0.005830892 0.055384472 -0.15241331 -0.119384 -0.04470952 -0.10082057 0.08318617 -0.058171757 0.028868116 -0.088019624 -0.10689483 0.1344113 0.10859108 -0.104878545 0.05581367 0.05594629 -0.060835175 0.017843269 0.048944786 0.058806337 -0.10361116 0.07166607 0.045512334 0.019558655 0.024613302 0.02158294 -0.039480038 0.07098515 -0.005066414 -0.11223717 0.050470993 0.12228254 0.027930936 0.009248598 0.00688842 0.15581724 -0.10399019 0.1026977 -0.040669672 0.24910115
583 0.17852426 -0.034115393 0.069279104 -0.0079056425 -0.025876189 0.030286845 0.10694169 0.058664303 -0.014029332 0.06884211 -0.03898401 0.024095437 0.05641386 0.0087062325 -0.12796544 -0.07315793 -0.07410494 0.11495914 -0.13513933 -0.020352788 0.13430361 0.05403641 -1.4250282e-05 0.04735655 -0.070886046 0.046861183 -0.14669298 -0.10101219 -0.051723383 0.01782869 0.13225801 0.030954575 -0.17072858 -0.055773266 0.08704024 0.21794225 0.025579082 0.00708844 0.0045164973 0.027098576 0.001581517 -0.05039461 -0.0071093533 -0.1135697 0.13163762 -0.022451913 0.032839064 0.04345244 -0.01962491 0.015357542 -0.03425689 -0.011700034 0.075060055 -0.07734052 -0.021080662 0.1904343 -0.011096119 0.15920208 -0.012042265 0.04914985 -0.05194577 0.028983833 -0.018329961 0.11663694
265 0.048791192 -0.02017013 0.080716506 0.053028632 -0.12588352 -0.019218197 0.07198167 0.029624466 -0.009191609 0.001869158 -0.02492409 0.02138827 0.051009342 0.10774007 -0.13265368 -0.0874957 0.014065136 0.1324892 -0.13468477 -0.05542032 0.063500725 0.092275746 0.035543583 0.091793925 -0.11395337 0.1465856 -0.0658075 -0.15421876 -0.007270137 -0.03673486 0.022250418 0.10101918 -0.09634719 -0.09155104 -0.1270314 0.07842113 0.051095854 -0.11282365 0.0065656477 0.07095304 0.035848998 0.005743539 0.049864545 -0.0069132964 -0.020895578 0.049034417 0.08084294 0.006189382 0.27138108 0.061733324 -0.0037071214 0.06468803 -0.0147768175 -0.08388124 0.014284129 0.10182921 0.0052379803 -0.049282815 0.026444843 0.02001276 0.019795064 0.17580788 -0.07197682 0.08780047
755 0.037218668 0.002282115 -0.010316316 -0.13528375 -0.08033439 -0.08627831 0.018260283 -0.07830318 0.018854696 0.072334535 0.048277408 -0.07989116 0.12227797 0.036393557 0.037444547 -0.021800283 -0.0684491 0.08004953 -0.022335485 -0.013161077 -0.040747005 0.05378441 0.08308033 0.09528535 0.009621477 -0.035995077 -0.103213914 -0.06937593 0.10654968 0.0127859935 0.23665585 -0.055706922 -0.11021306 -0.021359948 -0.06463552 0.081653446 0.05604373 -0.25604358 0.104641624 -0.12003284 -0.08073158 0.08384409 0.057915993 0.020752216 -0.0063460697 -0.03963898 -0.0645028 -0.04032451 0.015346335 0.05516753 -0.040219426 0.021551793 -0.007589011 -0.07264898 -0.08665769 -0.00045135288 0.037692063 -0.15611024 0.14103675 0.123553395 -0.06460161 0.09848445 -0.043997638 0.15995891
204 0.11613808 0.044789407 0.05698922 0.12048945 -0.13738967 -0.08639835 -0.035287086 -0.043216284 0.03171349 -0.14058559 -0.02758711 0.012070012 -0.054656044 0.038513813 0.055831887 -0.05322848 -0.12974408 0.13502154 -0.010103813 0.14731438 -0.020724053 0.00722801 0.046639606 0.048903342 0.035309166 -0.046924736 -0.14285034 0.12928952 0.07413861 0.04566356 -0.027783858 -0.14967388 -0.20711799 -0.005860755 0.103622295 0.21643783 -0.064952716 0.0114395 -0.0024007584 0.018787734 -0.009891429 -0.06391533 0.07976349 -0.04008723 -0.047098547 0.03577511 0.008314206 0.12699755 0.018485785 -0.15019476 -0.08096147 0.06902025 -0.10279954 -0.0600793 0.026935225 0.011867481 -0.00969525 0.0051548476 0.06123542 -0.041075327 0.1123272 0.093533665 0.021783862 0.08658603
252 0.019123422 -0.024778185 0.07959973 0.023920136 -0.08229006 0.04237406 0.09594772 0.044860158 -0.074113816 0.013264766 0.010017437 -0.029565636 0.08012634 0.0018547988 -0.074223295 -0.0822201 -0.0015220897 0.098644644 0.0034413848 -0.09832478 0.11254241 0.09881074 0.15178023 0.05664428 0.041973315 -0.07097786 -0.17040558 -0.107015386 0.044332467 -0.13023545 0.11971705 0.042939328 -0.09320319 0.030377217 -0.12107201 0.064027555 -0.023752915 -0.12455029 0.058600362 0.01736192 -0.013614625 0.027958551 -0.02340281 -0.16747618 -0.003616455 -0.036957 -0.003559233 -0.090428844 -0.051697705 0.09285892 -0.018886253 -0.016931169 0.094742544 -0.15343364 0.050461046 0.10246866 -0.016375013 -0.048493456 0.09372707 -0.059110958 0.07913733 0.13449563 -0.1212037 0.09529006
38 0.04122527 -0.010495674 -0.028035952 -0.03375551 -0.103380896 -0.043992314 -0.0351603 -0.08212331 -0.087893315 -0.13689314 0.045462627 -0.1508007 -0.112206005 0.005261806 -0.0012742367 -0.028321343 -0.10067236 -0.067439325 0.082710624 0.11891523 0.019273514 -0.089546666 0.20965527 -0.025385862 -0.019500518 -0.114394955 -0.17950825 -0.021268895 -0.020506546 0.013474846 0.13852452 -0.12998441 -0.1748897 0.096786715 0.0075525073 0.104240015 -0.06753433 0.11181959 -0.022871166 0.034439642 0.045033544 -0.017042035 0.036649335 -0.04421144 -0.00603097 0.014236805 0.0054598073 0.047546882 0.023361275 -0.047524374 0.055858787 0.006110014 -0.19158658 -0.043080878 0.022695914 -0.012663703 0.02704597 -0.14970393 -0.013636585 -0.0037337097 0.0646833 0.039528944 -0.021958806 0.21168269
11 0.093006425 0.07050353 -0.0032607538 -0.055151373 0.05604412 -0.012158375 0.034399632 0.02367892 0.10155509 -0.05905915 -0.038512383 -0.01885636 -0.08267078 -0.088567 -0.034097195 -0.02293535 -0.10722975 0.11992518 -0.015417754 -0.059992116 0.15763757 0.09217732 0.023423288 0.03331896 -0.024801044 -0.23870331 -0.070886664 -0.17874785 -0.003494713 -0.055603724 -0.026787447 -0.0461524 -0.23107116 0.005675579 -0.053210665 0.1926365 0.061910145 0.006545692 -0.13268635 0.013491988 -0.06634931 0.07490337 0.007533432 -0.032006122 0.08228964 0.160465 0.13929136 -0.09247292 0.12583858 -0.05283319 -0.029643727 -0.04330118 -0.05065816 0.062103853 -0.058060285 0.11231184 -0.006559132 -0.055986963 0.21658911 0.010992992 0.049530514 -0.026543614 -0.16933133 0.06113121
756 0.014667722 -0.015044892 0.039826144 -0.034536768 -0.15487444 -0.091072924 0.024165811 0.06643086 0.042027563 -0.042630825 0.042319182 -0.0811035 -0.005214779 -0.023175571 -0.02122478 -0.07933012 -0.09094537 0.06464475 -0.008881575 0.0120074395 0.038223878 0.03065031 0.0795326 -0.0524544 -0.011461671 -0.050102673 -0.076655984 -0.05468453 0.0046141893 0.044907514 0.1259597 -0.09710341 -0.11134985 -0.045751024 -0.11656428 0.116072394 0.03180214 -0.0945387 0.07994578 0.17817865 0.009602596 0.06521793 -0.019103382 0.024551881 -0.020484645 0.1546547 0.049384642 -0.0026251976 0.14439918 0.027431814 -0.0062434277 0.18700004 -0.009171041 -0.0040476257 0.00027767007 -0.02755003 -0.022231996 -0.0055797254 0.0865374 0.16495292 -0.11089523 0.09927401 -0.071615875 0.110097855
165 -0.008366656 0.074436575 0.087046124 0.08533131 0.02631565 0.023292374 -0.08162362 0.01583086 -0.060596623 -0.094798334 0.045579664 -0.091996685 -0.080259696 -0.030080006 0.03851277 0.017944638 -0.00157574 0.04180373 -0.08555776 0.13199711 -0.04678825 -0.019503433 0.08881363 0.018030794 -0.013309562 -0.044539716 -0.12543727 0.06230448 0.05282671 0.07934096 -0.033414684 -0.049621258 -0.08439045 0.054963186 -0.09326656 0.25145376 -0.029645462 0.046882812 -0.08265705 0.086871065 0.09010845 -0.13115178 0.18356082 0.0006443071 -0.13571292 -0.01092334 -0.080234036 0.034720074 -0.020407295 0.030863618 -0.018779391 0.018876866 -0.048179585 -0.13519563 0.0457471 0.041791406 0.09161579 -0.044599786 -0.0024267468 -0.028787324 -0.034295566 0.1825101 -0.122501135 0.10468108
140 0.15125506 -0.0203369 0.03254411 0.03814991 0.041747898 0.08134946 -0.035770938 -0.009121287 -0.06386353 -0.06362528 -0.05010155 -0.024196897 -0.05305865 0.0146279875 -0.028484542 -0.002129543 -0.027727192 0.036783446 -0.14684673 0.030699236 0.08327078 0.095032 0.18828063 0.05078395 0.08815934 -0.061281174 -0.05315882 -0.040720236 -0.06975929 -0.037264775 -0.043596696 -0.032592185 -0.1811847 -0.12479313 -0.0023244976 0.23237172 -0.08674459 -0.1337463 -0.1926296 -0.03825645 0.009379615 0.11954776 0.024129564 0.034738664 0.0053926855 0.20111924 -0.12394574 0.00030221746 0.21592036 0.06414633 -0.046420183 -0.15605222 0.055431426 0.01904776 0.022326807 0.03760067 0.05329045 -0.08672661 0.003890919 0.1181148 0.11186962 0.035887614 -0.13581209 0.17318147
151 0.15731066 -0.05135023 0.067167155 0.012528734 -0.056443274 0.025201347 -0.026493821 0.009691645 -0.0032300444 0.0003117076 0.06495176 -0.07916011 -0.026537564 -0.04602463 -0.09816667 0.059188314 -0.08699165 0.12399134 -0.05725745 0.05812263 0.11396147 -0.005660688 0.010404899 0.013158757 -0.04100384 -0.1434604 -0.1568169 -0.054882582 0.07757713 -0.1808928 0.004250217 -0.06859535 -0.14510961 -0.1651187 -0.1737141 0.13793677 0.051976964 -0.056601055 -0.028389156 -0.13048898 -0.010467443 0.0038181392 0.033447217 -0.04424181 0.07458136 0.0825106 0.010177211 -0.06150638 0.20415677 -0.01700635 -0.1151601 -0.16322444 -0.026347678 0.040358048 -0.08766704 0.011821113 0.08739229 -0.032170955 0.04489942 0.04454713 0.018187044 -0.099409536 -0.115697384 0.14619257
266 0.06004742 -0.06823104 0.03119495 -0.075007714 -0.10065119 -0.016901556 0.15815033 0.058128253 -0.019503418 -0.10246234 0.05701695 -0.04482564 0.052220866 0.09576044 -0.063874714 -0.098830506 0.0022695137 0.13250591 -0.12352367 -0.001989874 -0.037631225 0.14289019 0.046601348 0.037979417 -0.005607934 0.029900692 -0.15974878 -0.13616985 -0.07923971 0.03498818 0.062371146 0.19683504 -0.028746929 -0.062850684 0.023625731 0.11550262 0.10160189 -0.10177302 -0.028471587 -0.02689583 0.06404504 0.035115663 0.035551198 -0.028781984 0.008965369 -0.1349492 0.096554525 0.015523428 0.044614 0.09816615 -0.028779645 -0.03573852 -0.10903565 -0.1647815 -0.06277368 0.10754737 0.07401432 0.0032474645 0.17764762 0.049216874 0.06545115 0.024176832 0.06496419 0.10066625
580 0.09582325 -0.0123285595 0.043741435 0.06277151 0.007869738 0.0462495 0.041494936 0.15316434 0.025985662 -0.016844146 -0.06071904 -0.0049276906 0.117930554 0.061350502 -0.09162041 0.02135419 -0.06099338 0.072025895 -0.09425656 -0.059034027 0.048805796 0.038396902 0.01937738 -0.019506514 -0.06008468 0.004034951 -0.18540423 -0.17052756 -0.040457074 -0.053802542 0.051040925 -0.0026769824 -0.074286506 0.004414877 -0.10081752 0.102618106 0.028703935 -0.11090489 -0.016630325 0.027187759 0.011695938 -0.023806194 0.00718699 -0.011579963 -0.02388841 -0.0014719288 -0.024274845 0.07854645 0.1201913 0.058851052 -0.010784443 0.0917851 0.018398734 -0.063569374 -0.0131931715 0.09717798 0.07477874 -0.05847429 0.10208961 0.03399953 -0.034288626 0.005271006 -0.043871596 0.13700376
298 0.12111361 0.059683256 -0.034616947 -0.044994052 -0.025061175 0.11050502 -0.038141895 -0.033615094 -0.009292514 -0.046993047 0.011183198 0.004270013 -0.0968008 -0.15011849 0.12577896 0.09118143 -0.043839946 0.027359286 -0.032435253 0.061952412 -0.032099977 -0.081224315 0.10372861 -0.009268611 0.035473343 0.049825404 -0.2378119 0.03986736 0.17158799 -0.09575288 0.13952157 -0.02783163 -0.14089152 -0.008594222 0.094319575 0.19300374 -0.0027552976 -0.07140021 -0.016318595 0.08976031 0.079568215 -0.07738316 0.13658331 0.0065311794 -0.055790238 -0.05933985 -0.029948713 0.055383522 0.07955554 -0.03564646 -0.03551588 0.16284768 -0.086420126 -0.10385721 0.04180688 -0.018434545 0.07029299 -0.084143154 -0.068375096 -0.037249688 0.050755724 0.05871097 -0.0779478 0.09820888
288 0.075968005 0.06868092 -0.06329246 0.08740234 -0.09670944 0.016004413 0.018773345 -0.066304244 -0.049728617 -0.0973404 -0.030145966 -0.15618971 -0.05217975 -0.056993667 0.001511588 -0.02990937 -0.07202458 -0.02587188 -0.15092607 0.036742773 -0.062439993 -0.01251274 0.075532965 -0.0074623995 0.027562581 0.0025432792 -0.31285048 0.035257716 0.11598689 0.019868799 -0.053274885 -0.053687934 -0.09382889 -0.06364613 0.04057841 0.14571893 0.04319608 -6.851769e-05 0.036039174 0.094775416 0.08405209 0.09504682 0.10984101 -0.059207693 -0.18656419 -0.031431694 0.05331716 0.13591824 0.05720081 -0.09287418 0.059888646 0.1624158 -0.11981892 -0.03385806 0.013464411 0.089965105 0.063161865 -0.08518472 -0.026929742 -0.10176972 0.052618235 0.025949793 -0.1270848 0.08669662
784 -0.014008301 0.05437161 0.13020399 0.07616735 -0.12446515 0.015432612 -0.027432702 0.03974198 -0.068170115 0.051285364 0.034792863 -0.07304105 -0.021081762 -0.036474746 -0.03888586 -0.057277605 0.06497157 0.18327683 0.022125628 0.14243415 -0.026852984 0.11500298 0.044500437 0.013527553 -0.05238932 -0.028432943 -0.14731447 0.051768035 -0.0071531385 -0.0122129945 0.06765262 -0.0302556 -0.2096853 0.058266375 0.03232853 0.119670294 -0.091731034 0.023232497 0.06279267 0.0056505688 0.0504257 -0.09658783 0.034844685 -0.06430871 -0.038026854 -0.023524828 0.054204006 0.024434445 0.03520273 -0.0973632 -0.0655444 0.1276774 -0.09643638 -0.055080727 0.011455699 0.16411288 -0.02993341 -0.04615038 -0.049966525 0.09151682 0.09412024 0.06581327 -0.02303731 0.0954327
655 0.026077285 -0.105771564 0.056622833 -0.089491546 0.048421253 0.08236193 -0.07530578 0.07560813 0.06794271 -0.033134155 -0.025454754 -0.07996089 0.09080147 0.022445468 -0.08339014 -0.025836047 -0.16500616 0.15343376 -0.1122825 -0.03628139 0.039395697 0.16710432 0.07754886 -0.05616558 0.01150331 -0.07814488 -0.04003224 -0.095056586 -0.05551286 0.067383915 0.09198828 0.029919917 -0.03828679 -0.016725404 -0.041883558 0.17753759 0.0021470946 -0.10449813 0.07786087 -0.08450835 0.1729643 0.052853175 -0.1318401 0.06487754 -0.118211314 0.029663732 0.06796993 0.042589348 0.023082543 0.027745126 -0.119467214 0.04100269 -0.05174805 -0.046828814 -0.044505633 0.022333015 0.06420181 0.008654794 0.05456524 -0.013616749 0.1229883 0.15579902 -0.14072573 0.17842588
137 0.19042438 -0.03630831 0.10197104 0.10917274 -0.15943442 0.14312701 0.054272395 -0.037228327 -0.076318495 -0.068300985 -0.035205342 -0.0893845 -0.02180994 -0.0017613864 0.0729148 0.0028427935 -0.099895716 0.18294825 -0.2134202 -0.10523172 0.113567464 0.004115886 0.024983864 0.07295957 -0.042706754 -0.13438804 -0.096641295 0.026592672 -0.013813064 -0.037877128 0.02331282 -0.079311706 -0.15183887 -0.16103896 0.032463692 0.18793821 -0.060481 -0.07786726 -0.10333637 -0.07369127 -0.121198915 -0.04209442 0.036399517 -0.039011594 0.10120091 0.11360479 -0.08080581 -0.121026896 0.14670913 0.092881314 -0.036805306 -0.1884191 -0.06485221 0.0022118308 -0.07691814 0.066478476 -0.04505228 -0.101180725 0.034155797 0.0131107 -0.02227201 -0.061287723 -0.20589085 0.06409253
154 0.09103942 0.016744737 -0.008316387 0.05832249 0.008050176 0.12039369 0.041876614 -0.06395945 0.07988809 0.0083867 -0.011098148 -0.019679701 -0.075294174 0.018321497 0.03988433 0.060618564 -0.030580033 0.14127961 -0.117081374 -0.051337108 0.117093176 0.043097418 -0.04018198 -0.073098585 0.05061241 -0.0057079927 -0.12860431 -0.02789752 -0.020102765 -0.07686839 0.067812204 0.08506591 -0.11148072 -0.037469473 0.028187923 0.19228272 0.09766854 -0.042240784 -0.035794225 -0.05612826 -0.033759575 0.08565585 0.009258769 -0.06900467 -0.060869284 0.09430122 0.11999165 -0.0941661 0.12350347 0.112186246 -0.03467012 -0.14594752 -0.07849191 -0.03350552 -0.056395803 0.21896015 0.112421826 -0.13538949 0.14817435 0.021925414 -0.05244433 -0.016687877 -0.15634412 0.10628191
785 -0.024631297 0.08158152 0.09953042 -0.00070883305 -0.115809135 -0.090808764 0.0431339 -0.07683193 0.031997032 -0.0039635845 0.14802916 -0.17572132 0.11182271 -0.09628468 0.03730161 0.06503836 -0.10551174 0.057803135 0.09854519 0.14211291 -0.13736865 -0.004438819 0.038796194 0.034364194 0.07075474 0.1468367 -0.14502566 -0.08930624 0.097342305 0.012816699 0.0847123 -0.03802871 -0.16267307 0.067621306 0.006834209 0.19356428 -0.06366503 0.09367766 0.052131027 0.1026244 -0.038178638 0.00703819 0.06329813 -0.0803963 0.010894778 0.03955057 -0.014381611 -0.08722193 0.03828929 0.009295834 0.09317259 -0.08906151 -0.08070367 0.0122712245 0.08212601 0.027615078 0.05364696 -0.05466776 -0.035471242 -0.01908083 0.03405402 0.09889085 -0.049981784 0.17916854
737 0.03660883 0.046221193 0.11546536 0.09249361 -0.10168669 0.021404386 0.064356774 -0.05538597 0.008083098 0.04514372 0.08007104 -0.19438295 0.20904362 0.04941613 -0.09386226 -0.016919343 -0.035114035 0.1535601 -0.0051291413 -0.09268549 0.081509806 0.12498451 0.020912735 -0.08053829 -0.0013953784 0.044369668 -0.049209382 -0.10720398 -0.029070223 -0.033049356 0.13694704 0.031106278 -0.08657741 -0.036938924 -0.05996218 0.120944306 0.08541078 0.04317284 -0.026908213 0.10686905 -0.049534224 0.02153718 0.12274547 -0.07473797 -0.07122846 -0.008498443 -0.050276194 0.020898718 0.07592991 0.030693043 -0.04369312 0.0805627 0.02282456 0.0053416607 0.008465457 0.034727458 0.10553048 -0.052866373 0.08154454 -0.030435905 0.010978994 -0.03779481 -0.08654953 0.184821
287 0.10294334 0.065763175 -0.056496397 -0.08773872 0.15252063 -0.047831137 -0.028855376 0.023063827 0.06889343 -0.15548514 0.009574242 -0.035029575 -0.07445738 -0.18364808 0.07862583 0.058295526 -0.025498098 -0.012894359 -0.117657885 0.11762604 0.045613658 -0.00089580263 0.09424736 0.046012998 -0.0809415 0.111301154 -0.2628227 0.0580991 0.13469584 -0.007613074 0.16021992 -0.06843616 -0.098538145 0.090720005 0.034851138 0.2003396 0.0036997343 0.049788434 0.0015480553 0.057563223 0.030225005 0.008504032 0.121000275 -0.00880335 0.03313932 0.0060392744 0.020961203 0.0858086 -0.0012894527 -0.07293133 -0.0069164066 -0.012285159 -0.033213276 -0.06824547 0.012874262 0.040621277 0.12726013 -0.09325782 0.041483264 -0.009844792 0.056339927 0.20604426 -0.04028835 0.0017267376
316 0.07542547 -0.0623132 -0.12904489 0.095821425 -0.07396129 0.14455628 0.013506616 0.06790954 0.04679233 -0.02898135 -0.054691553 0.02611589 -0.122021645 0.0035282327 -0.04269536 -0.020352686 -0.10845241 0.13428622 -0.13056703 -0.061023537 0.047811646 0.034443058 0.10309004 0.08317558 0.037509773 0.02755771 -0.04756183 -0.03945245 0.065117195 -0.1375694 0.06311884 -0.089209676 -0.1501392 0.010111904 -0.1251992 0.08657382 -0.06279936 -0.022490276 -0.004815152 0.011630909 -0.081280515 0.05437269 0.08640673 -0.11507877 0.14836363 -0.0030642056 0.056588024 0.0023503127 0.17087372 0.030399486 -0.12440221 -0.081272885 -0.058324367 0.06230823 -0.07784868 0.22245598 0.10856621 -0.100212246 0.19825692 0.11759958 0.00017172103 -0.0059854863 -0.06134964 0.16019632
775 -0.018073922 0.09234386 0.025228694 0.09928493 -0.061955646 0.040676076 -0.14120682 -0.053752262 -0.03580447 -0.15726766 0.03998565 -0.037851937 -0.001950125 -0.12038908 -0.007648453 -0.015543931 0.004504305 0.099332444 -0.031119833 0.15244862 -0.06728295 -0.08287984 0.18471009 -0.09797898 0.0074400185 0.0065375646 -0.14579998 0.024347514 -0.049033094 0.028190957 0.1026113 -0.07989299 -0.19723636 0.06609873 0.094568096 0.18676275 0.009991647 -0.027834136 -0.07376428 0.027823925 0.08309438 0.018920342 0.19129698 -0.02676899 -0.16032523 0.07098624 -0.0013106518 0.062728725 -0.0136943 0.0010867988 -0.021256618 -0.023824055 -0.052173432 -0.18566239 0.06988562 -0.028955854 -0.022303429 -0.04833675 0.0061635086 -0.021502685 -0.05650098 0.048679482 -0.084447116 0.053903684
318 0.10210036 -0.08857668 0.07846263 -0.050362866 -0.0051371213 0.0727055 0.043950293 -0.06520885 0.08224038 -0.02198533 0.017045628 -0.027237097 -0.054418627 0.10966126 0.070975274 -0.0670055 -0.05790852 0.06563219 -0.2295891 -0.07695195 0.020092426 -0.043330874 0.08160978 0.08198958 -0.009221556 -0.09633282 -0.18581876 -0.0826453 -0.08934619 -0.023024863 -0.027624885 -0.035376262 -0.105557084 -0.10518484 0.04760725 0.1359047 0.08911115 -0.06940193 -0.12835465 0.051815968 -0.016394071 0.0021506553 0.06689199 -0.15414205 0.15157002 0.06569268 -0.033145517 -0.09968464 0.13082278 0.01557021 -0.094225846 -0.07779135 0.012275603 0.07774892 -0.09890494 0.10516468 0.075811364 -0.053694185 0.15461154 0.062440842 -0.004873707 -0.008452623 -0.15216084 0.15717654
251 0.028452314 -0.043354843 0.042143445 0.033603813 -0.0556487 0.027279178 -0.009988486 0.05276869 -0.05860677 0.14052132 0.00044047815 0.07623154 0.16240355 0.134812 -0.13485861 -0.024687923 -0.030573905 0.08309133 -0.057778474 0.036611553 0.12494813 0.050649844 0.10961873 -0.033234805 -0.05481197 -0.0030930797 -0.16790284 -0.09923419 0.020758595 -0.061570533 0.004603425 0.15057695 -0.045444977 -0.009620524 -0.09682865 0.12401299 0.043842364 -0.113304295 0.04941618 0.08084944 -0.061267737 -0.009407743 -0.011230631 -0.10770707 -0.097933486 -0.02956794 -0.027103411 -0.0071648597 0.13070069 -0.15101822 -0.1179226 -0.0011168809 0.039476003 -0.028835915 -0.07766265 0.027495936 0.06482906 -0.05181815 0.03093314 0.031701054 0.018301364 0.0398783 -0.08852823 0.21115531
17 0.14825198 0.05457406 0.12146356 -0.07051264 0.018266493 -0.08040108 0.04183233 0.095165715 -0.123521075 0.036021665 0.053415462 -0.08159837 0.057175096 0.08033454 -0.13426098 0.02201515 -0.027030656 0.070822395 -0.06698755 0.026729606 -0.08173109 0.06309579 0.015885437 -0.097196914 0.01682037 -0.063005805 -0.19780532 -0.013550658 -0.037996896 0.075905465 0.14266355 0.07876184 -0.16600153 0.09372105 -0.04532563 0.1330769 0.06628369 -0.012777075 -0.05189251 0.039936934 -0.027731646 -0.072671585 -0.043792024 0.11210036 -0.09530419 -0.11033724 -0.12754121 0.04687518 -0.013968064 0.037559167 -0.005096186 -0.041146476 -0.08447831 0.04333947 -0.003455178 0.02164505 -0.0052629774 -0.06263909 0.059699 0.20310885 0.020347767 -0.0015136402 -0.0013511286 0.12653296
267 0.12092023 0.05179238 0.05981255 0.008639506 -0.14162418 -0.091758065 0.13143222 0.09511378 0.11831642 -0.061613835 0.030050682 -0.044089995 0.030758992 -0.013849789 0.005066099 -0.0777876 -0.07150795 0.058605447 -0.06700547 -0.054112837 0.05858064 0.022257108 0.09371968 0.029544216 0.017945617 -0.030917414 -0.12327744 -0.1740948 0.043618366 0.03606078 0.19447419 0.018061692 0.008301535 -0.076733515 -0.06584896 0.14340182 0.07850021 -0.1571119 -0.09326558 0.034340978 0.03120088 -0.079813175 -0.059345264 -0.020872697 -0.008271251 0.019035298 -0.01395467 0.0055142255 0.10261802 -0.0029762913 -0.065054476 -0.03418234 0.08310536 0.025089368 0.04075083 0.088806614 -0.05265096 0.012173998 0.054367233 0.0052774725 -0.09758779 0.12668084 0.063541524 0.1353615
10 0.15498002 -0.043822262 -0.021400811 -0.12625942 -0.055444807 0.087102026 -0.06617894 -0.058586825 0.10874018 -0.058962144 -0.032496803 -0.011288469 -0.06566779 -0.016599033 -0.026915614 0.071301326 -0.18160707 0.076287195 -0.05294607 0.027586114 0.0633721 -0.046728365 -0.0065081464 0.057373967 -0.039561614 -0.14764126 -0.115707636 -0.14911886 0.037940033 -0.054809887 0.07711391 0.08867904 -0.15838605 -0.034229975 -0.03424875 0.21997729 0.049531166 0.026877247 -0.04217247 -0.037178718 0.0070552574 0.010232147 -0.033879276 -0.10505867 0.085043006 0.1360108 -0.0946432 -0.075021565 0.18760723 0.032317765 -0.04630861 -0.17885853 0.070059605 0.07739036 -0.13979988 0.05641467 0.10503065 -0.049192913 0.08252085 -0.0063499375 0.07333286 -0.01203281 -0.059196956 0.13191624
781 0.055703092 0.021075571 0.04458769 0.007441561 -0.042792216 0.013732343 -0.08524107 0.003677154 -0.117627576 -0.090374455 0.0036829154 -0.076388046 -0.070678055 -0.033225436 0.040447555 -0.0013083153 -0.10848521 -0.016882094 -0.00045191863 0.17922293 -0.02891872 -0.09292161 0.028515076 0.033821955 -0.043365818 0.010109226 -0.24040128 -0.018646855 0.0061051226 0.08903556 0.052522708 -0.09541563 -0.19862935 0.034538306 -0.05225935 0.09951159 -0.022673372 0.10709967 -0.035455152 0.12615725 -0.06298105 -0.061638728 0.17294583 0.069871224 0.03857382 -0.09048983 -0.0042382674 -0.032674965 0.11831201 -0.11189014 0.089555345 -0.06515421 -0.033561915 -0.009145743 0.02199409 -0.040433902 -0.005283138 -0.0054265545 -0.03702557 -0.003605256 0.032645084 0.14866975 -0.11135778 0.16221866
752 0.0595827 -0.05316323 0.041449547 0.036026627 0.021006297 -0.04522265 -0.026617093 0.046100933 -0.07741891 -0.03954987 0.05001706 -0.15831806 0.15591793 -0.068851806 0.0047206474 -0.028737754 -0.13616475 -0.027628627 -0.057398655 -0.06318991 0.14227058 0.057013698 -0.014964175 -0.039911803 0.107743576 0.15460046 -0.06690179 -0.0994151 0.055705737 0.0324743 0.11551306 0.10497238 -0.124094844 -0.0680264 0.046971697 0.19257772 -0.09730514 -0.10546362 -0.0024659103 -0.14241388 0.04890671 0.026594058 0.036485326 -0.011628264 -0.13885307 0.078725584 -0.08885744 -0.016061394 0.010483008 0.0031162596 -0.018894898 0.13150115 -0.03673234 0.0140183 -0.021856809 0.025731547 0.044186357 -0.0748483 0.20521772 0.058414757 -0.0089279 0.028450241 0.023381973 0.11435033
301 0.13207605 0.008944303 0.062005326 0.026223851 -0.038531277 0.18361679 -0.10376144 -0.048339315 0.21394719 0.06503897 0.019337041 0.05766864 0.02979859 -0.11446951 -0.025983116 -0.032713894 -0.14857474 0.12694333 -0.051055487 -0.034048412 -0.059127964 -0.042423394 0.028899143 0.0120284865 0.07277088 -0.19812265 -0.23363419 -0.11311552 -0.07659474 -0.057378218 -0.043541733 0.0703663 -0.17869 0.0926846 -0.13774632 0.09973931 -0.0014894858 -0.19016567 -0.047065213 -0.06131464 -0.07267873 -0.020990364 0.05817259 0.099385984 0.10172684 0.13530202 0.074405275 -0.026728975 0.24327563 0.0072497777 0.061554164 -0.13094081 0.015124533 -0.09071739 0.027972832 0.1201752 0.10750387 0.006908261 -0.027219763 0.07568579 0.08485069 0.06653059 -0.055675343 0.13694267
782 0.12737733 0.089063674 0.061800882 0.036889598 -0.098032326 0.05289014 -0.048970506 -0.017132089 -0.019137593 -0.040325318 0.010732275 -0.09109791 -0.19388118 0.07146617 -0.0075925495 0.05395989 -0.112661265 -0.06455626 -0.09930407 0.22421263 0.0299236 -0.07545574 0.11612455 0.048628423 -0.12580742 0.07483378 -0.26670077 0.004435717 0.053004645 0.10606612 -0.005786669 -0.027109947 -0.04115402 0.031621322 -0.052109484 0.15342118 -0.15290274 0.022045555 0.017279048 0.037844118 -0.13691929 -0.036267318 0.035084397 0.060440395 -0.06344385 -0.012059781 0.102414645 0.05209865 0.02999653 0.08376526 0.08390114 0.020866578 0.0010816917 -0.038920067 0.039743382 0.0239956 0.087774925 -0.1724462 0.07380753 -0.044476286 0.12829593 -0.03973299 -0.1266013 0.061303336
197 0.054940984 0.062232252 0.047242172 -0.060044605 -0.03847899 0.13255441 0.049337644 0.11524599 0.04784109 0.0033369027 -0.059066378 -0.09759313 -0.094943985 0.01783622 0.015913801 -0.07115756 -0.1119558 0.115926735 -0.21531571 0.075336896 0.05185074 0.014086102 -0.004107866 0.08978901 -0.032386184 -0.2028557 -0.15400465 -0.020458885 -0.07590197 -0.07906724 -0.09554794 -0.032356944 -0.17016882 -0.122919455 -0.07531135 0.24653463 0.009129621 -0.095616415 -0.14889692 -0.092849314 -0.073437534 0.11738504 0.068151616 0.0434433 -0.055142585 0.09447224 -0.09880234 0.015381678 0.24595258 0.0054689143 -0.08665019 -0.028697113 -0.08241547 0.023263872 -0.016174775 0.13541101 -0.029055746 -0.11359206 0.0015268625 0.057971373 0.06687945 -0.040443406 -0.010393049 0.071618296
56 -0.057571385 -0.06279858 0.070063904 0.033266895 -0.01569721 -0.12644488 0.017270233 -0.021766543 0.037960295 -0.0006149173 0.06811143 -0.09054679 -0.005034493 -0.013555256 -0.09952658 -0.011472433 -0.07417136 0.13725677 -0.07087601 -0.0068324753 0.124246754 0.13962884 0.066080235 -0.011639576 -0.15765344 0.008801684 -0.092528366 -0.064154275 -0.09960255 -0.05304248 0.089351125 0.021594869 -0.1507575 -0.13288298 -0.095779456 0.08893171 0.0013702587 -0.037338465 0.038754243 0.10076997 0.04436325 0.021256926 0.052953396 -0.1465322 0.072219186 -0.08937131 0.034184158 0.030508231 0.07506366 0.08967648 0.03134887 -0.029364035 0.090188086 -0.112737656 0.028324312 0.07738088 0.052344427 0.038838092 0.06512942 0.06872707 0.019580044 0.1256144 -0.13290872 0.055614933
780 0.10854057 0.009647224 0.094692945 0.1115236 -0.08844474 -0.1597362 -0.07003044 -0.0619231 0.058274385 -0.10643483 0.059973158 -0.12716708 -0.078894176 -0.0152127035 -0.014753269 0.10342258 0.00901789 -0.048653822 -0.07803008 0.1257272 -0.09331067 0.013351107 0.022144329 -0.004728626 -0.033982497 -0.03762157 -0.16756682 0.051070895 0.15442422 0.03825354 0.1046241 -0.03266742 -0.09483462 0.031237295 -0.03649026 0.29231623 -0.04547886 0.055055726 0.07582002 0.0404657 0.056151256 -0.10210559 0.09794773 -0.05583997 -0.049139522 -0.07309659 0.08585482 0.08216517 -0.06292759 -0.06205749 -0.08164345 -0.07007785 -0.09070211 -0.056276884 0.10312707 0.07567042 0.015901987 -0.013684621 0.011953297 0.14476399 0.10901367 0.026067408 0.07171097 0.016137786
23 0.12256063 -0.0239278 -0.016250523 -0.03437963 -0.013662384 0.043003302 -0.0027635433 0.070956916 0.078114554 -0.07272101 -0.019453825 -0.013961987 -0.10424627 -0.11925737 -0.0012653428 0.006379841 -0.085878074 0.02320241 -0.11969218 -0.114215106 0.14022194 -0.08016095 -0.012407547 0.082915895 0.09844672 -0.0015759793 -0.10057985 0.045825403 -0.08688411 -0.042643134 0.004022299 -0.07528908 -0.19987114 -0.1060154 -0.26825482 0.2928897 -0.03876793 -0.037292097 -0.06833987 -0.027880456 -0.013440369 0.040807378 0.14414507 -0.16261372 0.074335285 0.11249721 -0.030666506 -0.0581173 0.10488045 0.07301808 -0.005215989 -0.10773031 -0.098829724 0.0020006988 -0.11570845 0.19238594 0.0703202 -0.08636659 -0.024137558 0.073574774 -0.04105496 0.064751476 0.019072017 0.14341518
250 -0.06265178 0.01341071 0.03557437 -0.11337609 -0.046035416 -0.07025315 0.053866934 0.08131081 0.028592184 0.035065703 0.11392068 -0.081120595 0.07831053 0.053246375 0.09064813 0.019364543 -0.007921569 0.17447932 -0.15194164 -0.16904287 0.1283745 0.06795949 -0.017355029 0.036658093 -0.05273799 0.052594993 -0.14343344 -0.043803066 -0.0911009 0.028678367 0.1574526 0.027657785 -0.078121305 -0.10932597 -0.16870914 0.0068454086 -0.11414022 0.009355928 -0.02252534 -0.04237983 -0.09537906 -0.04328144 0.19553703 -0.0005883438 -0.023918439 0.040330734 -0.0677748 0.04290783 0.12656239 -0.085594445 -0.068947315 -0.010466666 0.1166714 -0.07677758 0.026202982 0.1445377 0.06271561 -0.044077538 0.21547371 0.049733046 0.029810444 0.13808633 -0.14109363 0.022245776
783 0.08668147 0.051455732 0.12950595 0.026078232 -0.08977314 0.013575949 -0.045656104 0.0464754 -0.03740185 -0.13887645 -0.010138934 -0.028476357 0.080855496 -0.035725534 0.14503565 0.12167655 0.015460221 -0.017970258 -0.0027738009 0.11552792 0.02369094 0.021874195 0.08714376 0.030989615 -0.07182173 -0.051538616 -0.15478599 0.0747168 0.09142928 -0.071733534 0.14531994 -0.041644618 -0.12480911 0.10212843 0.09321113 0.27468956 0.0020637421 -0.063525595 0.09257275 0.017216444 0.10103779 0.021610841 0.13779594 0.009060534 -0.002068464 -0.056310173 0.024552489 0.04968914 0.04665376 -0.049993016 0.017325487 0.00013139324 -0.13490231 -0.079989694 0.008360643 -0.0070932657 0.024627946 -0.002797186 0.0034174675 -0.075633615 0.040300768 0.12589125 0.018082427 0.07445666
9 0.07383622 -0.02721152 0.035021894 -0.00089038705 -0.072990075 0.07556693 -0.02303912 -0.13258116 -0.028021306 -0.034972433 0.056679074 -0.14357108 -0.022456478 0.09690064 -0.029936997 0.04680644 -0.02641411 0.15795991 -0.20200439 -0.099129885 0.03861091 0.021271335 0.020449439 0.0042010336 0.12167061 -0.15225503 -0.23031476 0.038664408 -0.09376579 -0.07860985 0.063451715 0.016196689 -0.04955769 -0.10544132 -0.020927208 0.1329074 0.14131923 -0.076829396 0.053031646 -0.088378645 0.04951613 0.009749103 0.06278683 -0.06702024 0.023104595 0.1485578 0.042494472 0.08578515 0.15977377 -0.010247312 0.10965196 -0.06779758 -0.0031652125 0.12758939 -0.091538735 0.19396809 0.12481227 0.0035820266 0.110844806 0.096080184 0.17056865 -0.044391546 -0.08517005 0.085385315
286 -0.10548442 0.0025324717 -0.02496297 -0.013433648 -0.07956116 0.031583816 -0.11742311 -0.030433755 -0.029075703 -0.1015843 -0.050839424 -0.1779161 -0.10745841 -0.031439714 -0.016128177 -0.12728573 -0.085595846 -0.021341044 -0.06537214 0.08163319 0.008963295 -0.06380491 0.07211091 0.05288417 0.026340485 0.049728967 -0.22916001 0.13746952 0.10384928 0.0064023957 0.091909304 -0.09245928 -0.15044293 -0.01988391 0.009139741 0.26205415 -0.009740513 0.05508974 -0.007029522 0.16414575 0.048168637 -0.03732121 0.008263199 -0.08346874 -0.19527672 -0.0016837727 -0.0074554016 0.015674302 -0.0059688687 0.040748242 0.17738816 0.008443052 0.030316815 -0.07258901 0.042201184 0.089596726 0.06564366 -0.1334591 -0.093706354 -0.052019734 0.043262333 0.0771195 -0.031386778 0.08959418
37 0.06961886 0.10261391 0.101353094 0.04158214 -0.028957209 -0.02698784 -0.08077886 0.06347668 -0.04023606 -0.08562282 0.043096602 -0.063037 0.08538563 -0.04157937 0.026088892 0.011621246 0.017369641 -0.0094731385 -0.013710122 0.2757987 -0.23143668 -0.110579155 0.1434239 0.0048907273 0.04499675 0.006618743 -0.18605208 -0.05118126 -0.0058558793 0.042703543 0.100007094 -0.07864302 -0.18156932 -0.098450504 -0.045321748 0.14951612 0.031367216 -0.040766463 0.10188414 -0.044822738 -0.011787777 0.10719747 0.13174456 -0.027933136 -0.06639804 0.050032537 0.062019188 0.0040381555 0.035098318 0.08929853 0.011313504 0.04284294 -0.091076024 -0.1601336 0.118319415 0.017548475 0.047423627 -0.12872204 0.035487924 -0.024155421 -0.031107025 -0.024777012 0.107681915 0.10760608
139 0.010889137 0.05165741 0.039106324 0.032207906 -0.008709252 0.06372256 0.016657175 0.07653486 0.00012425074 -0.1402699 -1.661914e-05 -0.0823783 -0.051590834 -0.08663251 -0.031794183 -0.04866369 0.063633196 0.089369714 -0.15248848 -0.011074841 0.03519162 0.008459686 0.035823286 -0.045746963 0.042409133 -0.10029811 -0.20142747 -0.041257024 -0.021913193 -0.13036165 -0.08197805 -0.00013524626 -0.15066245 -0.06485322 -0.06137585 0.2945269 0.085067615 -0.027743991 -0.093830444 -0.06813835 -0.0069818776 -0.047919936 -0.00425941 -0.09583772 -0.033459436 0.11580131 -0.0038481918 -0.1374717 0.21210504 -0.09595288 -0.00093278114 -0.22953796 -0.024244841 0.026940547 -0.021286743 0.049203333 0.15714428 0.08525029 0.057125457 0.016171081 -0.062018514 0.0036633424 -0.061956752 0.087036304
268 0.009249864 2.5023317e-06 0.13665639 0.032758232 -0.08995665 -0.018059961 -0.11161261 0.054631893 -0.00947683 -0.04696187 -0.011716859 0.007906914 0.12099292 -0.028106598 -0.061466347 -0.1127832 -0.03181048 0.12277361 -0.09761603 -0.062908925 0.055251684 0.039452694 0.098780565 0.02356642 -0.108542405 -0.13376065 -0.07413676 -0.027751662 -0.0040885876 0.011554733 0.04877272 0.13051854 -0.13622653 -0.035846647 -0.0041566426 0.10414311 -0.008715281 -0.028205216 -0.0868756 0.032674216 -0.146653 -0.12213123 -0.10160968 -0.05070991 -0.0011587447 0.0094280625 0.004138648 -0.01742411 0.096297555 0.048545558 -0.05941481 0.09154102 0.03429438 -0.015200504 -0.015190933 0.028917616 0.03654713 0.023310453 0.14848234 -0.010385411 0.013077742 0.0546819 -0.09361266 0.13039792
712 0.081531845 -0.11531871 0.017775495 -0.028081661 -0.04681999 -0.04836564 -0.15901779 0.09369166 -0.06530877 0.1264656 -8.556589e-05 0.028266395 0.0967857 -0.090501405 -0.013564513 -0.1086452 -0.08603574 0.07858324 0.03079175 -0.03323758 0.021887228 0.061803475 0.06311176 -0.013757223 -0.0336084 -0.068700194 -0.17618859 -0.029623596 0.071777254 -0.03196069 0.20092933 0.015753364 -0.08683968 -0.09657492 -0.0908216 0.09559242 -0.019011155 -0.11921092 0.043010887 -0.043292575 0.09393759 0.065466285 -0.040068083 -0.060959123 0.015514497 -0.07619131 0.07099376 0.011210476 0.057732917 0.08527452 -0.15575299 0.13896991 -0.06524879 0.0065747784 -0.003053658 0.04429735 0.15515271 0.043496907 0.11371542 0.016291317 -0.045621302 0.05552001 -0.06635269 0.11742778
311 0.08272005 0.025773525 0.064568855 0.070138104 -0.10559783 -0.05456534 -0.030138023 -0.07503722 0.11430411 0.0087989075 -0.07864364 -0.098124065 -0.059084352 -0.029898418 -0.07643753 -0.0064209593 -0.13914444 0.09160323 -0.23769015 -0.010071082 -0.0037873867 0.08602301 0.04993633 -0.009363024 0.011277709 -0.11264214 -0.085475646 0.0030780535 0.037195098 -0.18471952 0.14869651 0.11674377 -0.07500839 -0.013228008 -0.012333438 0.16135405 0.03262382 -0.08253529 -0.03603585 0.0036047332 0.031324018 0.030127471 0.028615916 -0.026034242 0.06650192 0.08413363 0.074085854 -0.07451344 0.12255436 -0.019406898 -0.01443993 -0.19825771 -0.008482252 0.04528524 -0.15029928 0.1624003 0.030816093 0.045438107 0.06280875 0.13445842 0.0072223493 -0.020140007 -0.047947336 0.1763742
334 -0.016811073 -0.06623335 0.058488473 0.05412969 0.081935294 -0.059181083 0.016954912 0.0075145895 0.031154823 -0.021988869 0.116677366 -0.08888336 0.01490861 -0.054303918 0.01000138 0.040646974 -0.109246 0.08658024 -0.048327178 0.016154088 0.070002496 0.22108223 -0.008617316 0.030193329 0.006864356 -0.019042624 -0.2008149 -0.0676385 -0.06518385 -0.042143207 0.11409379 -0.029970393 -0.084895745 0.047021065 -0.028677719 0.0039528515 0.010995606 -0.048058804 -0.002140709 0.020052226 0.116008826 -0.12707983 -0.051138368 -0.14354636 0.073583566 0.033001404 -0.061196797 0.068486445 0.16253953 0.07573528 -0.12395589 -0.02581873 0.01596081 -0.034011412 -0.060669735 0.035458423 0.004559393 -0.044991206 0.19415258 0.022854093 -0.00078781333 0.06324196 -0.15643321 0.07209722
299 0.034597337 0.15105802 -0.09078622 -0.07384618 -0.11974 -0.02337059 -0.12119526 -0.06823166 -0.10599176 -0.11222907 0.082382336 -0.07504529 -0.111826956 -0.1295595 -0.007434354 -0.104030795 -0.007648621 0.045543022 0.03243237 0.062218577 -0.015509757 -0.102479145 0.104359955 0.10093505 0.063376114 0.02722443 -0.18811564 0.04185866 0.075149246 0.056895267 0.17963246 -0.013848444 -0.13932307 -0.08183852 0.006006939 0.21785244 -0.04203885 0.045462415 0.035082094 -0.026929708 0.08249981 -0.12051881 0.2385496 -0.021709116 -0.066863224 0.10503746 0.001930459 -0.0036653518 0.044397335 -0.12835544 0.05841688 -0.0104900375 0.02740746 -0.07192799 0.05008927 -0.0014472716 0.10861765 -0.010354243 0.01702088 -0.035150997 -0.014161338 -0.009176898 -0.032846697 0.12253477
300 0.09099976 0.05050011 -0.08664418 0.0132517805 -0.050441455 0.03161195 0.016530523 0.015855463 -0.1576253 -0.14355305 -0.023149608 -0.1958355 -0.1843958 -0.027635243 -0.0047482313 0.022835726 -0.01611748 0.0639541 0.012840894 0.040410466 -0.016262395 -0.013898629 0.08914832 -0.08475614 0.12590654 -0.015445778 -0.3061233 0.05555972 0.19941448 0.0347625 0.02455159 0.01574505 -0.094301894 0.04892432 0.07624247 0.19507223 -0.0017273147 -0.034610208 0.03251518 -0.06516703 0.07012654 -0.13756676 0.15505068 -0.036978986 -0.11017296 0.090314336 0.00837002 0.031256918 0.03500936 -0.06588598 0.09456156 0.075109676 -0.07323929 -0.027092246 0.032338824 0.0011407814 0.042671096 -0.10816775 -0.010942168 0.040878322 0.06604415 0.07710588 0.06157523 0.0771661
779 0.004452102 -0.018367901 0.04369981 0.14615452 -0.10666988 5.1657535e-05 -0.00422495 0.023357254 0.008422783 -0.15437451 0.049690858 -0.07871914 0.005081647 0.105716825 0.07192538 0.050921798 -0.13874978 0.053977896 0.0118481405 0.14892274 0.015184741 -0.01585242 -0.017837271 0.16676931 0.053117834 0.01004536 -0.15995875 -0.032356065 0.069182895 0.04932705 0.14010443 -0.038321428 -0.1804243 -0.024643678 -0.06524291 0.16431765 0.033657756 0.049616173 0.11216329 0.007162222 0.045037746 0.05190642 0.120675385 -0.13672721 -0.038297452 -0.09596123 0.0325822 0.07485113 -0.028571062 -0.031993516 -0.046802286 0.008236971 -0.036801275 0.0127139315 0.1263462 0.028617036 0.019904329 0.072024494 0.009408105 0.12281615 0.07111651 0.04456559 0.013326877 0.034404702
738 0.10695647 0.020513635 0.04807897 -0.03815966 -0.032734096 0.0021202627 -0.014479763 0.06594702 -0.07545248 0.046969283 0.0057579987 -0.0029091865 0.06874559 0.1109922 0.09447186 0.037013948 -0.090028495 0.03007691 -0.020291142 0.06356072 0.06374199 0.002290503 0.17054662 0.025499662 -0.036770377 0.019505631 -0.23489535 -0.049641587 0.063435055 -0.063230634 0.11369937 -0.044047788 0.05512237 0.15254006 -0.16524167 0.10600044 0.06813036 0.112289384 0.04765297 0.08115079 -0.036355294 -0.091338485 0.031556137 -0.071227826 0.060699705 -0.10727084 -0.0072877454 0.031367887 0.14339967 0.068715304 -0.0050384263 0.07321065 -0.01792681 -0.046805743 -0.04263547 0.10118109 0.03664861 0.133346 0.108019345 0.10752363 -0.008521879 0.08291877 -0.10653035 0.052748118
249 0.036106993 0.0010614576 0.022148166 0.04532145 0.0126133915 0.018413628 0.030132318 0.023007613 0.011357582 -0.07583812 -0.0052049956 -0.06985686 0.14788386 -0.046028614 -0.08010174 -0.17902109 -0.10928414 0.118145585 -0.11109432 -0.013002564 0.031454805 0.090723 0.067246184 0.023780398 0.055521797 -0.06721663 -0.17831562 -0.17544731 -0.015451154 0.12210843 0.050398275 0.05247158 -0.20488536 -0.05933831 -0.0753729 0.07746983 0.09067823 0.016682137 -0.09204692 0.009770377 -0.002419671 0.007852075 -0.077078305 0.044683382 0.0028975075 -0.04243146 0.05421892 0.034831095 0.103397995 0.0967454 -0.11932885 0.03000553 0.12991312 -0.089208476 -0.027787056 0.07376298 0.027673159 0.023652943 0.08960545 0.06402134 -0.03374245 -0.056715854 -0.031335395 -0.0004891117
